{"learner":{"attributes":{"scikit_learn":"{\"_estimator_type\": \"regressor\"}"},"feature_names":["amount_count","amount_sum","amount_mean","amount_max","usd_value_sum","usd_value_mean","action_deposit_sum","action_borrow_sum","action_repay_sum","action_redeemunderlying_sum","action_liquidationcall_sum","active_days","deposit_borrow_ratio"],"feature_types":["int","float","float","float","float","float","int","int","int","int","int","int","float"],"gradient_booster":{"model":{"gbtree_model_param":{"num_parallel_tree":"1","num_trees":"100"},"iteration_indptr":[0,1,2,3,4,5,6,7,8,9,10,11,12,13,14,15,16,17,18,19,20,21,22,23,24,25,26,27,28,29,30,31,32,33,34,35,36,37,38,39,40,41,42,43,44,45,46,47,48,49,50,51,52,53,54,55,56,57,58,59,60,61,62,63,64,65,66,67,68,69,70,71,72,73,74,75,76,77,78,79,80,81,82,83,84,85,86,87,88,89,90,91,92,93,94,95,96,97,98,99,100],"tree_info":[0,0,0,0,0,0,0,0,0,0,0,0,0,0,0,0,0,0,0,0,0,0,0,0,0,0,0,0,0,0,0,0,0,0,0,0,0,0,0,0,0,0,0,0,0,0,0,0,0,0,0,0,0,0,0,0,0,0,0,0,0,0,0,0,0,0,0,0,0,0,0,0,0,0,0,0,0,0,0,0,0,0,0,0,0,0,0,0,0,0,0,0,0,0,0,0,0,0,0,0],"trees":[{"base_weights":[-2.7027361E-5,-2.7682203E1,6.1583244E1,-1.999345E2,-2.2525587E1,7.177049E1,-3.974033E2,-2.14374E1,-1.2912513E1,-2.1275486E1,-2.5366673E1,3.5214897E1,9.728898E1,-2.7939108E2,-6.065312E1,-2.9764673E1,-8.936259E-1,4.0296066E1,-8.997435E1,1.0602688E2,-1.4918422E1,-3.0735453E1,-7.4406943E0,-3.0458915E0,7.359851E-1,-8.531799E-1,2.7757225E0,2.1424289E0,6.922306E0,-9.388772E0,-1.9550294E0,9.347136E0,1.5256716E1,-6.0703425E0,3.6782606E0],"categories":[],"categories_nodes":[],"categories_segments":[],"categories_sizes":[],"default_left":[0,0,0,0,0,0,0,0,0,0,0,0,0,0,0,0,0,0,0,0,0,0,0,0,0,0,0,0,0,0,0,0,0,0,0],"id":0,"left_children":[1,3,5,7,9,11,13,-1,-1,15,-1,17,19,21,-1,23,25,27,29,31,33,-1,-1,-1,-1,-1,-1,-1,-1,-1,-1,-1,-1,-1,-1],"loss_changes":[4.77162E6,1.7106855E6,4.0871245E6,2.957625E4,5.366725E5,7.89491E5,2.9945375E5,0E0,0E0,3.2301194E5,0E0,2.2689934E5,4.918105E5,5.73795E4,0E0,3.41935E4,1.2059889E5,1.830325E5,2.0228047E3,2.568715E5,8.9816695E4,0E0,0E0,0E0,0E0,0E0,0E0,0E0,0E0,0E0,0E0,0E0,0E0,0E0,0E0],"parents":[2147483647,0,0,1,1,2,2,3,3,4,4,5,5,6,6,9,9,11,11,12,12,13,13,15,15,16,16,17,17,18,18,19,19,20,20],"right_children":[2,4,6,8,10,12,14,-1,-1,16,-1,18,20,22,-1,24,26,28,30,32,34,-1,-1,-1,-1,-1,-1,-1,-1,-1,-1,-1,-1,-1,-1],"split_conditions":[2.3E1,1.1649854E5,3E0,2.3605146E4,2E0,2.1E1,7E0,-2.14374E1,-1.2912513E1,3E0,-2.5366673E1,1E0,1E0,1.4285715E0,-6.065312E1,3E0,3E0,5.7E1,1.6E1,3.6190476E0,1.2E1,-3.0735453E1,-7.4406943E0,-3.0458915E0,7.359851E-1,-8.531799E-1,2.7757225E0,2.1424289E0,6.922306E0,-9.388772E0,-1.9550294E0,9.347136E0,1.5256716E1,-6.0703425E0,3.6782606E0],"split_indices":[11,4,10,4,10,0,10,0,0,11,0,10,10,12,0,8,8,11,0,12,8,0,0,0,0,0,0,0,0,0,0,0,0,0,0],"split_type":[0,0,0,0,0,0,0,0,0,0,0,0,0,0,0,0,0,0,0,0,0,0,0,0,0,0,0,0,0,0,0,0,0,0,0],"sum_hessian":[2.797E3,1.93E3,8.67E2,5.5E1,1.875E3,8.49E2,1.8E1,4.4E1,1.1E1,1.866E3,9E0,3.5E2,4.99E2,1.3E1,5E0,1.317E3,5.49E2,3.37E2,1.3E1,4.63E2,3.6E1,1.1E1,2E0,1.293E3,2.4E1,4.34E2,1.15E2,2.05E2,1.32E2,1.2E1,1E0,3.67E2,9.6E1,1.9E1,1.7E1],"tree_param":{"num_deleted":"0","num_feature":"13","num_nodes":"35","size_leaf_vector":"1"}},{"base_weights":[-4.970144E-2,-2.0616734E1,6.754126E1,-1.8055446E2,-1.632351E1,7.688979E1,-3.352089E2,-1.9341303E1,-1.1728863E1,-1.4314478E1,-2.9341925E2,8.40686E1,-2.2097914E1,-3.7075336E2,-6.9446497E0,-2.1771055E1,2.8420155E1,-1.9488834E1,-5.1565723E1,6.333688E1,1.14133446E2,-5.8217194E1,3.330867E1,-2.592546E1,-4.5762615E1,-2.7096908E0,-7.4124765E-1,1.8986666E0,1.04162E1,5.0890536E0,1.3652901E1,1.3149162E1,9.349013E0,-2.3512409E0,-1.0655939E1,6.6167283E0,1.1365422E0],"categories":[],"categories_nodes":[],"categories_segments":[],"categories_sizes":[],"default_left":[0,0,0,0,0,0,0,0,0,0,0,0,0,0,0,0,0,0,0,0,0,0,0,0,0,0,0,0,0,0,0,0,0,0,0,0,0],"id":1,"left_children":[1,3,5,7,9,11,13,-1,-1,15,17,19,21,23,-1,25,27,-1,-1,29,31,33,35,-1,-1,-1,-1,-1,-1,-1,-1,-1,-1,-1,-1,-1,-1],"loss_changes":[3.8910195E6,1.4705999E6,2.4843985E6,2.2871375E4,1.1598475E6,4.5594E5,1.15948375E5,0E0,0E0,6.6246344E5,2.2796412E5,3.642555E5,8.9993945E4,7.279E3,0E0,1.3507744E5,2.1880583E5,0E0,0E0,3.1644788E5,7.4423E4,4.279258E4,1.2226424E4,0E0,0E0,0E0,0E0,0E0,0E0,0E0,0E0,0E0,0E0,0E0,0E0,0E0,0E0],"parents":[2147483647,0,0,1,1,2,2,3,3,4,4,5,5,6,6,9,9,10,10,11,11,12,12,13,13,15,15,16,16,19,19,20,20,21,21,22,22],"right_children":[2,4,6,8,10,12,14,-1,-1,16,18,20,22,24,-1,26,28,-1,-1,30,32,34,36,-1,-1,-1,-1,-1,-1,-1,-1,-1,-1,-1,-1,-1,-1],"split_conditions":[3.9E1,1.1649854E5,3E0,2.3605146E4,2E0,1E0,1.6666666E0,-1.9341303E1,-1.1728863E1,5E0,4E0,6E0,1.2E1,5E0,-6.9446497E0,3E0,7.142857E0,-1.9488834E1,-5.1565723E1,5.2972975E0,2.3E1,2E0,1.7E1,-2.592546E1,-4.5762615E1,-2.7096908E0,-7.4124765E-1,1.8986666E0,1.04162E1,5.0890536E0,1.3652901E1,1.3149162E1,9.349013E0,-2.3512409E0,-1.0655939E1,6.6167283E0,1.1365422E0],"split_indices":[11,4,10,4,10,10,12,0,0,6,10,8,8,10,0,11,12,0,0,12,7,10,7,0,0,0,0,0,0,0,0,0,0,0,0,0,0],"split_type":[0,0,0,0,0,0,0,0,0,0,0,0,0,0,0,0,0,0,0,0,0,0,0,0,0,0,0,0,0,0,0,0,0,0,0,0,0],"sum_hessian":[2.797E3,2.145E3,6.52E2,5.5E1,2.09E3,6.38E2,1.4E1,4.4E1,1.1E1,2.076E3,1.4E1,5.95E2,4.3E1,1.2E1,2E0,1.768E3,3.08E2,1.1E1,3E0,3.54E2,2.41E2,2.6E1,1.7E1,7E0,5E0,1.289E3,4.79E2,2.75E2,3.3E1,3.04E2,5E1,1.28E2,1.13E2,1.6E1,1E1,6E0,1.1E1],"tree_param":{"num_deleted":"0","num_feature":"13","num_nodes":"37","size_leaf_vector":"1"}},{"base_weights":[-9.328846E-2,-1.9399702E1,5.8353886E1,-1.6305383E2,-1.5464108E1,6.63141E1,-3.0693018E2,-1.7225286E1,-9.587516E0,-1.3589064E1,-2.688143E2,7.290785E1,-2.4182589E1,-1.4863893E2,-3.712119E1,-1.9190495E1,3.0888908E1,-1.770236E1,-4.769829E1,5.246844E1,1.0070186E2,-5.6131187E1,3.0408552E1,-1.7434586E1,-6.4816737E0,-2.400689E0,-2.4993853E-1,1.8507977E0,9.863211E0,3.5982838E0,8.00027E0,8.998694E0,1.3634712E1,-3.091709E0,-9.687217E0,6.9493876E0,1.4277471E0],"categories":[],"categories_nodes":[],"categories_segments":[],"categories_sizes":[],"default_left":[0,0,0,0,0,0,0,0,0,0,0,0,0,0,0,0,0,0,0,0,0,0,0,0,0,0,0,0,0,0,0,0,0,0,0,0,0],"id":2,"left_children":[1,3,5,7,9,11,13,-1,-1,15,17,19,21,23,-1,25,27,-1,-1,29,31,33,35,-1,-1,-1,-1,-1,-1,-1,-1,-1,-1,-1,-1,-1,-1],"loss_changes":[3.1584102E6,1.187005E6,2.041233E6,1.8092E4,9.6971025E5,4.0812425E5,9.7452E4,0E0,0E0,5.075934E5,2.02182E5,3.5545575E5,8.368006E4,1.6283281E3,0E0,1.4528675E5,1.8940352E5,0E0,0E0,1.6416344E5,9.0089E4,2.7822398E4,1.0356594E4,0E0,0E0,0E0,0E0,0E0,0E0,0E0,0E0,0E0,0E0,0E0,0E0,0E0,0E0],"parents":[2147483647,0,0,1,1,2,2,3,3,4,4,5,5,6,6,9,9,10,10,11,11,12,12,13,13,15,15,16,16,19,19,20,20,21,21,22,22],"right_children":[2,4,6,8,10,12,14,-1,-1,16,18,20,22,24,-1,26,28,-1,-1,30,32,34,36,-1,-1,-1,-1,-1,-1,-1,-1,-1,-1,-1,-1,-1,-1],"split_conditions":[3.4E1,1.1649854E5,3E0,8.9943E4,2E0,1E0,4E0,-1.7225286E1,-9.587516E0,1.4E1,4E0,7.8E1,1.2E1,7.8E1,-3.712119E1,1.5076923E0,4.6E0,-1.770236E1,-4.769829E1,5E0,3.6190476E0,2E0,1.6E1,-1.7434586E1,-6.4816737E0,-2.400689E0,-2.4993853E-1,1.8507977E0,9.863211E0,3.5982838E0,8.00027E0,8.998694E0,1.3634712E1,-3.091709E0,-9.687217E0,6.9493876E0,1.4277471E0],"split_indices":[11,4,10,2,10,10,10,0,0,0,10,11,8,0,0,12,12,0,0,8,12,10,8,0,0,0,0,0,0,0,0,0,0,0,0,0,0],"split_type":[0,0,0,0,0,0,0,0,0,0,0,0,0,0,0,0,0,0,0,0,0,0,0,0,0,0,0,0,0,0,0,0,0,0,0,0,0],"sum_hessian":[2.797E3,2.103E3,6.94E2,5.5E1,2.048E3,6.8E2,1.4E1,4.7E1,8E0,2.034E3,1.4E1,6.34E2,4.6E1,5E0,9E0,1.807E3,2.27E2,1.1E1,3E0,3.67E2,2.67E2,2.9E1,1.7E1,3E0,2E0,1.402E3,4.05E2,1.93E2,3.4E1,2.31E2,1.36E2,2.08E2,5.9E1,1.9E1,1E1,4E0,1.3E1],"tree_param":{"num_deleted":"0","num_feature":"13","num_nodes":"37","size_leaf_vector":"1"}},{"base_weights":[-1.2482425E-1,-2.0500984E1,4.520523E1,-1.4722725E2,-1.6707182E1,5.2983665E1,-3.0515662E2,-1.57659025E1,-9.583915E0,-1.54650135E1,-1.6014268E2,2.7864513E1,7.493607E1,-2.0780243E2,-4.81457E1,-1.9059723E1,1.3988617E1,-1.2163157E1,-2.8648039E1,3.2064E1,-7.440221E1,8.151672E1,-5.984812E0,-2.2731226E1,-6.0495605E0,-2.1172836E0,1.273897E0,8.527729E-1,5.0836673E0,1.7678553E0,5.503874E0,-7.753801E0,-1.3682526E0,7.157289E0,1.1864065E1,2.1826441E0,-6.1108584E0],"categories":[],"categories_nodes":[],"categories_segments":[],"categories_sizes":[],"default_left":[0,0,0,0,0,0,0,0,0,0,0,0,0,0,0,0,0,0,0,0,0,0,0,0,0,0,0,0,0,0,0,0,0,0,0,0,0],"id":3,"left_children":[1,3,5,7,9,11,13,-1,-1,15,17,19,21,23,-1,25,27,-1,-1,29,31,33,35,-1,-1,-1,-1,-1,-1,-1,-1,-1,-1,-1,-1,-1,-1],"loss_changes":[2.5853065E6,9.259154E5,2.3817E6,1.491E4,3.3177225E5,4.66624E5,2.2606E5,0E0,0E0,1.9730412E5,4.3001438E4,1.7331375E5,2.41716E5,2.6483625E4,0E0,1.1174494E5,4.0414777E4,0E0,0E0,1.2560919E5,1.9855625E3,1.4618425E5,5.4990926E4,0E0,0E0,0E0,0E0,0E0,0E0,0E0,0E0,0E0,0E0,0E0,0E0,0E0,0E0],"parents":[2147483647,0,0,1,1,2,2,3,3,4,4,5,5,6,6,9,9,10,10,11,11,12,12,13,13,15,15,16,16,19,19,20,20,21,21,22,22],"right_children":[2,4,6,8,10,12,14,-1,-1,16,18,20,22,24,-1,26,28,-1,-1,30,32,34,36,-1,-1,-1,-1,-1,-1,-1,-1,-1,-1,-1,-1,-1,-1],"split_conditions":[2.3E1,1.1649854E5,3E0,2.3605146E4,1E0,2.5E1,7E0,-1.57659025E1,-9.583915E0,2E0,2.2E1,1E0,1E0,1.4285715E0,-4.81457E1,2.3E0,1.1E1,-1.2163157E1,-2.8648039E1,5.9E1,1E1,3.6190476E0,2E0,-2.2731226E1,-6.0495605E0,-2.1172836E0,1.273897E0,8.527729E-1,5.0836673E0,1.7678553E0,5.503874E0,-7.753801E0,-1.3682526E0,7.157289E0,1.1864065E1,2.1826441E0,-6.1108584E0],"split_indices":[11,4,10,4,10,0,10,0,0,8,0,10,10,12,0,12,9,0,0,11,6,12,10,0,0,0,0,0,0,0,0,0,0,0,0,0,0],"split_type":[0,0,0,0,0,0,0,0,0,0,0,0,0,0,0,0,0,0,0,0,0,0,0,0,0,0,0,0,0,0,0,0,0,0,0,0,0],"sum_hessian":[2.797E3,1.93E3,8.67E2,5.5E1,1.875E3,8.49E2,1.8E1,4.4E1,1.1E1,1.86E3,1.5E1,3.97E2,4.52E2,1.3E1,5E0,1.658E3,2.02E2,1.3E1,2E0,3.82E2,1.5E1,4.18E2,3.4E1,1.1E1,2E0,1.555E3,1.03E2,1.77E2,2.5E1,2.36E2,1.46E2,1.4E1,1E0,3.32E2,8.6E1,2.3E1,1.1E1],"tree_param":{"num_deleted":"0","num_feature":"13","num_nodes":"37","size_leaf_vector":"1"}},{"base_weights":[-1.5691584E-1,-1.5305165E1,4.9626083E1,-1.3295717E2,-1.2146955E1,5.6728188E1,-2.562318E2,-1.4224344E1,-8.705389E0,-1.0589885E1,-2.2693942E2,4.3220013E1,8.552791E1,-1.8721162E2,-3.992345E1,-1.5148445E1,2.7187618E1,-1.4701617E1,-4.0997433E1,3.0514988E1,9.326022E1,1.1922677E2,6.568758E1,-2.0771519E1,-5.646257E0,-1.9859375E0,-1.5457289E-1,1.7548453E0,8.447423E0,3.6125512E0,-4.3866844E0,5.878614E0,1.0755553E1,1.2174026E1,1.9160665E0,7.293074E0,4.6345305E-2],"categories":[],"categories_nodes":[],"categories_segments":[],"categories_sizes":[],"default_left":[0,0,0,0,0,0,0,0,0,0,0,0,0,0,0,0,0,0,0,0,0,0,0,0,0,0,0,0,0,0,0,0,0,0,0,0,0],"id":4,"left_children":[1,3,5,7,9,11,13,-1,-1,15,17,19,21,23,-1,25,27,-1,-1,29,31,33,35,-1,-1,-1,-1,-1,-1,-1,-1,-1,-1,-1,-1,-1,-1],"loss_changes":[2.110802E6,7.957736E5,1.4330041E6,1.14883125E4,6.9692525E5,2.4489488E5,7.330981E4,0E0,0E0,3.5809416E5,1.5915825E5,2.7498212E5,1.2789325E5,2.0441719E4,0E0,1.1877631E5,1.2220933E5,0E0,0E0,1.476471E5,3.704525E4,1.62795E4,6.1382E4,0E0,0E0,0E0,0E0,0E0,0E0,0E0,0E0,0E0,0E0,0E0,0E0,0E0,0E0],"parents":[2147483647,0,0,1,1,2,2,3,3,4,4,5,5,6,6,9,9,10,10,11,11,12,12,13,13,15,15,16,16,19,19,20,20,21,21,22,22],"right_children":[2,4,6,8,10,12,14,-1,-1,16,18,20,22,24,-1,26,28,-1,-1,30,32,34,36,-1,-1,-1,-1,-1,-1,-1,-1,-1,-1,-1,-1,-1,-1],"split_conditions":[3.9E1,1.1649854E5,3E0,2.3605146E4,2E0,9E0,7E0,-1.4224344E1,-8.705389E0,1.6E1,4E0,3.6190476E0,2.1E1,1.4285715E0,-3.992345E1,1.2285714E0,5E0,-1.4701617E1,-4.0997433E1,1E0,1E1,2E0,1E0,-2.0771519E1,-5.646257E0,-1.9859375E0,-1.5457289E-1,1.7548453E0,8.447423E0,3.6125512E0,-4.3866844E0,5.878614E0,1.0755553E1,1.2174026E1,1.9160665E0,7.293074E0,4.6345305E-2],"split_indices":[11,4,10,4,10,8,10,0,0,0,10,12,7,12,0,12,12,0,0,10,6,10,10,0,0,0,0,0,0,0,0,0,0,0,0,0,0],"split_type":[0,0,0,0,0,0,0,0,0,0,0,0,0,0,0,0,0,0,0,0,0,0,0,0,0,0,0,0,0,0,0,0,0,0,0,0,0],"sum_hessian":[2.797E3,2.145E3,6.52E2,5.5E1,2.09E3,6.38E2,1.4E1,4.4E1,1.1E1,2.076E3,1.4E1,4.36E2,2.02E2,1.1E1,3E0,1.853E3,2.23E2,1.1E1,3E0,3.49E2,8.7E1,7.3E1,1.29E2,9E0,2E0,1.376E3,4.77E2,1.92E2,3.1E1,3.25E2,2.4E1,2.7E1,6E1,7.1E1,2E0,1.16E2,1.3E1],"tree_param":{"num_deleted":"0","num_feature":"13","num_nodes":"37","size_leaf_vector":"1"}},{"base_weights":[-1.7680925E-1,-1.6774363E1,3.6747215E1,-1.200709E2,-1.3681943E1,4.3249744E1,-2.5608948E2,-1.26752266E2,-7.109575E0,-1.2619823E1,-1.3636464E2,2.8754711E1,7.042259E1,-1.7281801E2,-4.07708E1,-1.27915E1,-3.6051881E0,-1.5650707E1,1.2211979E1,-1.0252772E1,-2.4881536E1,1.5425777E1,7.275494E1,7.599097E1,9.888606E0,-1.884464E1,-5.2698407E0,-1.7443799E0,1.1327194E0,7.4996257E-1,4.4003787E0,1.9953196E0,-5.8354344E0,5.0599895E0,8.753938E0,6.3766108E0,1.0324105E1,2.9317942E0,-3.00688E0],"categories":[],"categories_nodes":[],"categories_segments":[],"categories_sizes":[],"default_left":[0,0,0,0,0,0,0,0,0,0,0,0,0,0,0,0,0,0,0,0,0,0,0,0,0,0,0,0,0,0,0,0,0,0,0,0,0,0,0],"id":5,"left_children":[1,3,5,7,9,11,13,15,-1,17,19,21,23,25,-1,-1,-1,27,29,-1,-1,31,33,35,37,-1,-1,-1,-1,-1,-1,-1,-1,-1,-1,-1,-1,-1,-1],"loss_changes":[1.7153665E6,6.151886E5,1.6639034E6,9.3128125E3,2.4272888E5,3.3276562E5,1.6942525E5,4.505625E2,0E0,1.4025425E5,3.536928E4,3.249584E5,9.8685875E4,1.63510625E4,0E0,0E0,0E0,8.044981E4,3.0082275E4,0E0,0E0,1.4413069E5,3.7824438E4,8.3361375E4,2.1066547E4,0E0,0E0,0E0,0E0,0E0,0E0,0E0,0E0,0E0,0E0,0E0,0E0,0E0,0E0],"parents":[2147483647,0,0,1,1,2,2,3,3,4,4,5,5,6,6,7,7,9,9,10,10,11,11,12,12,13,13,17,17,18,18,21,21,22,22,23,23,24,24],"right_children":[2,4,6,8,10,12,14,16,-1,18,20,22,24,26,-1,-1,-1,28,30,-1,-1,32,34,36,38,-1,-1,-1,-1,-1,-1,-1,-1,-1,-1,-1,-1,-1,-1],"split_conditions":[2.3E1,1.1649854E5,3E0,8.9943E4,1E0,6E0,7E0,3E0,-7.109575E0,2E0,2.2E1,3.5E0,1E0,1.4285715E0,-4.07708E1,-1.27915E1,-3.6051881E0,2.3E0,1.1E1,-1.0252772E1,-2.4881536E1,1E0,5.2972975E0,2.25E0,2E0,-1.884464E1,-5.2698407E0,-1.7443799E0,1.1327194E0,7.4996257E-1,4.4003787E0,1.9953196E0,-5.8354344E0,5.0599895E0,8.753938E0,6.3766108E0,1.0324105E1,2.9317942E0,-3.00688E0],"split_indices":[11,4,10,2,10,8,10,0,0,8,0,12,10,12,0,0,0,12,9,0,0,10,12,12,10,0,0,0,0,0,0,0,0,0,0,0,0,0,0],"split_type":[0,0,0,0,0,0,0,0,0,0,0,0,0,0,0,0,0,0,0,0,0,0,0,0,0,0,0,0,0,0,0,0,0,0,0,0,0,0,0],"sum_hessian":[2.797E3,1.93E3,8.67E2,5.5E1,1.875E3,8.49E2,1.8E1,4.7E1,8E0,1.86E3,1.5E1,5.55E2,2.94E2,1.3E1,5E0,4.6E1,1E0,1.658E3,2.02E2,1.3E1,2E0,4.27E2,1.28E2,2.69E2,2.5E1,1.1E1,2E0,1.555E3,1.03E2,1.77E2,2.5E1,4.03E2,2.4E1,5.3E1,7.5E1,1.88E2,8.1E1,1.7E1,8E0],"tree_param":{"num_deleted":"0","num_feature":"13","num_nodes":"39","size_leaf_vector":"1"}},{"base_weights":[-1.9213869E-1,-1.0997816E1,4.7617077E1,-9.232784E0,-2.0067737E2,5.526911E1,-1.188057E2,-1.0848357E2,-6.7113724E0,-1.3729526E1,-3.7604107E1,4.198583E1,7.474943E1,-6.1339603E1,-2.4139399E1,-1.1441863E1,-6.477615E0,-1.4174786E1,1.4862875E1,1.632182E1,5.685778E1,6.556442E1,1.01528755E2,-8.916876E1,-2.6694933E1,-1.505311E0,2.5402E0,9.0048665E-1,5.9282804E0,1.9618149E0,-5.682473E0,5.918609E0,1.4224316E0,5.043832E0,9.03241E0,4.7933044E0,1.0398211E1,-1.0451493E1,-4.385733E0,-2.3670533E-1,-4.5683827E0],"categories":[],"categories_nodes":[],"categories_segments":[],"categories_sizes":[],"default_left":[0,0,0,0,0,0,0,0,0,0,0,0,0,0,0,0,0,0,0,0,0,0,0,0,0,0,0,0,0,0,0,0,0,0,0,0,0,0,0,0,0],"id":6,"left_children":[1,3,5,7,9,11,13,15,17,-1,-1,19,21,23,-1,-1,-1,25,27,29,31,33,35,37,39,-1,-1,-1,-1,-1,-1,-1,-1,-1,-1,-1,-1,-1,-1,-1,-1],"loss_changes":[1.4460012E6,7.624741E5,6.636785E5,5.655924E5,1.8178462E5,1.24690375E5,1.4722038E5,7.1151875E3,3.5573738E5,0E0,0E0,1.120475E5,4.2291E4,1.4009895E4,0E0,0E0,0E0,5.7425625E4,1.4726675E5,2.763746E4,1.7720438E4,5.1996312E4,1.4587812E3,1.6744609E3,4.049499E3,0E0,0E0,0E0,0E0,0E0,0E0,0E0,0E0,0E0,0E0,0E0,0E0,0E0,0E0,0E0,0E0],"parents":[2147483647,0,0,1,1,2,2,3,3,4,4,5,5,6,6,7,7,8,8,11,11,12,12,13,13,17,17,18,18,19,19,20,20,21,21,22,22,23,23,24,24],"right_children":[2,4,6,8,10,12,14,16,18,-1,-1,20,22,24,-1,-1,-1,26,28,30,32,34,36,38,40,-1,-1,-1,-1,-1,-1,-1,-1,-1,-1,-1,-1,-1,-1,-1,-1],"split_conditions":[5.4E1,2E0,2E0,1.1649854E5,5E0,2.142857E0,4E0,8.9943E4,1E1,-1.3729526E1,-3.7604107E1,3E0,5.2972975E0,6E0,-2.4139399E1,-1.1441863E1,-6.477615E0,5E0,4.107143E0,1.5E1,1E0,1E1,9E0,8.5E1,1.2E1,-1.505311E0,2.5402E0,9.0048665E-1,5.9282804E0,1.9618149E0,-5.682473E0,5.918609E0,1.4224316E0,5.043832E0,9.03241E0,4.7933044E0,1.0398211E1,-1.0451493E1,-4.385733E0,-2.3670533E-1,-4.5683827E0],"split_indices":[11,10,10,4,10,12,10,2,11,0,0,8,12,9,0,0,0,8,12,7,10,8,0,11,9,0,0,0,0,0,0,0,0,0,0,0,0,0,0,0,0],"split_type":[0,0,0,0,0,0,0,0,0,0,0,0,0,0,0,0,0,0,0,0,0,0,0,0,0,0,0,0,0,0,0,0,0,0,0,0,0,0,0,0,0],"sum_hessian":[2.797E3,2.282E3,5.15E2,2.262E3,2E1,4.93E2,2.2E1,5.5E1,2.207E3,1.6E1,4E0,2.95E2,1.98E2,1.6E1,6E0,4.7E1,8E0,1.64E3,5.67E2,1.09E2,1.86E2,1.5E2,4.8E1,8E0,8E0,1.605E3,3.5E1,5.02E2,6.5E1,1.05E2,4E0,1.76E2,1E1,9.5E1,5.5E1,3E0,4.5E1,5E0,3E0,4E0,4E0],"tree_param":{"num_deleted":"0","num_feature":"13","num_nodes":"41","size_leaf_vector":"1"}},{"base_weights":[-1.9876133E-1,-9.924932E0,4.2834274E1,-8.751757E0,-2.5144344E2,4.9808796E1,-1.0882869E2,-9.795522E1,-6.495604E0,-1.4801269E1,-3.4595783E1,3.8157303E1,6.8570496E1,-6.574833E1,-2.5076832E1,-1.0464036E1,-6.472305E0,-1.2534447E1,1.4882092E1,2.7058472E1,7.273797E1,9.256774E1,4.993765E1,-1.0022516E2,-3.1562899E1,-1.1949339E0,-8.33984E0,9.264911E-1,5.6463823E0,3.081412E0,-2.9828265E0,5.940565E0,9.64931E0,6.83632E0,1.0697963E1,1.0014343E0,5.390927E0,-1.0823901E1,-1.805719E0,-3.8171387E0,1.7260987E0],"categories":[],"categories_nodes":[],"categories_segments":[],"categories_sizes":[],"default_left":[0,0,0,0,0,0,0,0,0,0,0,0,0,0,0,0,0,0,0,0,0,0,0,0,0,0,0,0,0,0,0,0,0,0,0,0,0,0,0,0,0],"id":7,"left_children":[1,3,5,7,9,11,13,15,17,-1,-1,19,21,23,-1,-1,-1,25,27,29,31,33,35,37,39,-1,-1,-1,-1,-1,-1,-1,-1,-1,-1,-1,-1,-1,-1,-1,-1],"loss_changes":[1.1715188E6,6.44673E5,5.5123344E5,4.5682006E5,5.6326562E4,1.0537275E5,1.2415303E5,5.668375E3,2.8652266E5,0E0,0E0,1.1585994E5,7.943919E4,1.9230102E4,0E0,0E0,0E0,7.073453E4,1.1369365E5,5.091242E4,1.7704406E4,2.0942E4,1.6584625E4,3.9718438E3,4.208047E3,0E0,0E0,0E0,0E0,0E0,0E0,0E0,0E0,0E0,0E0,0E0,0E0,0E0,0E0,0E0,0E0],"parents":[2147483647,0,0,1,1,2,2,3,3,4,4,5,5,6,6,7,7,8,8,11,11,12,12,13,13,17,17,18,18,19,19,20,20,21,21,22,22,23,23,24,24],"right_children":[2,4,6,8,10,12,14,16,18,-1,-1,20,22,24,-1,-1,-1,26,28,30,32,34,36,38,40,-1,-1,-1,-1,-1,-1,-1,-1,-1,-1,-1,-1,-1,-1,-1,-1],"split_conditions":[5.4E1,3E0,2E0,1.1649854E5,5E0,8E0,5E0,2.3605146E4,4E0,-1.4801269E1,-3.4595783E1,3.5E0,2.3E1,1.3454546E0,-2.5076832E1,-1.0464036E1,-6.472305E0,1E0,5.2972975E0,2E1,9E0,1.2E1,1.2E1,1.5E1,7.849544E23,-1.1949339E0,-8.33984E0,9.264911E-1,5.6463823E0,3.081412E0,-2.9828265E0,5.940565E0,9.64931E0,6.83632E0,1.0697963E1,1.0014343E0,5.390927E0,-1.0823901E1,-1.805719E0,-3.8171387E0,1.7260987E0],"split_indices":[11,10,10,4,10,8,10,4,6,0,0,12,7,12,0,0,0,10,12,7,12,8,8,9,1,0,0,0,0,0,0,0,0,0,0,0,0,0,0,0,0],"split_type":[0,0,0,0,0,0,0,0,0,0,0,0,0,0,0,0,0,0,0,0,0,0,0,0,0,0,0,0,0,0,0,0,0,0,0,0,0,0,0,0,0],"sum_hessian":[2.797E3,2.282E3,5.15E2,2.272E3,1E1,4.93E2,2.2E1,5.5E1,2.217E3,6E0,4E0,3.06E2,1.87E2,1.8E1,4E0,4.4E1,1.1E1,1.729E3,4.88E2,2.33E2,7.3E1,8E1,1.07E2,8E0,1E1,1.716E3,1.3E1,4.31E2,5.7E1,2.19E2,1.4E1,4.9E1,2.4E1,3.2E1,4.8E1,1E1,9.7E1,7E0,1E0,9E0,1E0],"tree_param":{"num_deleted":"0","num_feature":"13","num_nodes":"41","size_leaf_vector":"1"}},{"base_weights":[-2.0371127E-1,-1.0389091E1,3.326953E1,-8.846213E1,-8.293213E0,3.8285E1,-1.8260738E2,-9.3218605E1,-5.326513E0,-6.8217416E0,-1.2489963E2,4.212207E1,-1.4559977E1,-1.29574E2,-2.9605566E1,-9.412572E0,-2.5292237E0,-1.2774128E1,8.899118E0,-8.928297E0,-2.9847052E1,2.8192993E1,5.9064396E1,-3.4505775E1,1.616761E1,-1.4241035E1,-4.359485E0,-1.3550628E0,9.538118E-1,4.8759976E-1,4.710297E0,1.399147E0,4.0459137E0,4.151745E0,6.684932E0,-6.2313614E0,-1.4482716E0,3.457616E0,-6.082737E-1],"categories":[],"categories_nodes":[],"categories_segments":[],"categories_sizes":[],"default_left":[0,0,0,0,0,0,0,0,0,0,0,0,0,0,0,0,0,0,0,0,0,0,0,0,0,0,0,0,0,0,0,0,0,0,0,0,0,0,0],"id":8,"left_children":[1,3,5,7,9,11,13,15,-1,17,19,21,23,25,-1,-1,-1,27,29,-1,-1,31,33,35,37,-1,-1,-1,-1,-1,-1,-1,-1,-1,-1,-1,-1,-1,-1],"loss_changes":[9.542892E5,3.5041962E5,7.140097E5,4.4098438E3,3.57928E5,1.3018331E5,5.1887094E4,5.7696875E2,0E0,1.93443E5,1.340841E5,1.389855E5,2.7524875E4,7.035547E3,0E0,0E0,0E0,2.610014E4,8.7071195E4,0E0,0E0,5.6745047E4,3.3833812E4,1.4131074E4,7.5830557E3,0E0,0E0,0E0,0E0,0E0,0E0,0E0,0E0,0E0,0E0,0E0,0E0,0E0,0E0],"parents":[2147483647,0,0,1,1,2,2,3,3,4,4,5,5,6,6,7,7,9,9,10,10,11,11,12,12,13,13,17,17,18,18,21,21,22,22,23,23,24,24],"right_children":[2,4,6,8,10,12,14,16,-1,18,20,22,24,26,-1,-1,-1,28,30,-1,-1,32,34,36,38,-1,-1,-1,-1,-1,-1,-1,-1,-1,-1,-1,-1,-1,-1],"split_conditions":[3.9E1,1.1649854E5,3E0,8.9943E4,1E0,1E0,7E0,3E0,-5.326513E0,7E0,4E0,7.8E1,1.2E1,1.4285715E0,-2.9605566E1,-9.412572E0,-2.5292237E0,3E0,4.107143E0,-8.928297E0,-2.9847052E1,3E0,2.9E1,1.1935484E0,2.3E1,-1.4241035E1,-4.359485E0,-1.3550628E0,9.538118E-1,4.8759976E-1,4.710297E0,1.399147E0,4.0459137E0,4.151745E0,6.684932E0,-6.2313614E0,-1.4482716E0,3.457616E0,-6.082737E-1],"split_indices":[11,4,10,2,10,10,10,0,0,11,10,11,8,12,0,0,0,8,12,0,0,8,0,12,8,0,0,0,0,0,0,0,0,0,0,0,0,0,0],"split_type":[0,0,0,0,0,0,0,0,0,0,0,0,0,0,0,0,0,0,0,0,0,0,0,0,0,0,0,0,0,0,0,0,0,0,0,0,0,0,0],"sum_hessian":[2.797E3,2.145E3,6.52E2,5.5E1,2.09E3,6.38E2,1.4E1,4.7E1,8E0,2.065E3,2.5E1,5.95E2,4.3E1,1.1E1,3E0,4.6E1,1E0,1.498E3,5.67E2,2.2E1,3E0,3.28E2,2.67E2,2.6E1,1.7E1,9E0,2E0,1.448E3,5E1,5.14E2,5.3E1,1.53E2,1.75E2,8.4E1,1.83E2,1E1,1.6E1,9E0,8E0],"tree_param":{"num_deleted":"0","num_feature":"13","num_nodes":"39","size_leaf_vector":"1"}},{"base_weights":[-2.1480499E-1,-8.019854E0,3.5240635E1,-6.6400514E0,-1.5705086E2,3.9311226E1,-1.5113971E2,-7.9924255E1,-4.7876153E0,-1.0740053E1,-2.9445185E1,4.3434788E1,-8.680142E0,-8.524226E0,-2.131682E1,-8.414551E1,-4.853043E0,-1.0136882E1,1.3718859E1,3.2397E1,5.9575447E1,-2.6889977E1,1.7538456E1,-8.491339E0,-2.402762E0,-1.3243636E0,1.6404664E-2,6.739357E-1,4.0095634E0,1.7154026E0,4.654536E0,5.2443824E0,7.868913E0,-3.6009579E0,6.470429E-1,2.6260855E0,-1.7374557E0],"categories":[],"categories_nodes":[],"categories_segments":[],"categories_sizes":[],"default_left":[0,0,0,0,0,0,0,0,0,0,0,0,0,0,0,0,0,0,0,0,0,0,0,0,0,0,0,0,0,0,0,0,0,0,0,0,0],"id":9,"left_children":[1,3,5,7,9,11,13,15,17,-1,-1,19,21,-1,-1,23,-1,25,27,29,31,33,35,-1,-1,-1,-1,-1,-1,-1,-1,-1,-1,-1,-1,-1,-1],"loss_changes":[7.745771E5,4.7068012E5,3.8907412E5,3.0832262E5,1.1163781E5,9.833519E4,2.6791781E4,3.3375625E3,2.1981131E5,0E0,0E0,7.930969E4,1.9569062E4,0E0,0E0,1.755625E2,0E0,5.5110375E4,9.140996E4,5.807753E4,2.0954562E4,7.5346055E3,5.633201E3,0E0,0E0,0E0,0E0,0E0,0E0,0E0,0E0,0E0,0E0,0E0,0E0,0E0,0E0],"parents":[2147483647,0,0,1,1,2,2,3,3,4,4,5,5,6,6,7,7,8,8,11,11,12,12,15,15,17,17,18,18,19,19,20,20,21,21,22,22],"right_children":[2,4,6,8,10,12,14,16,18,-1,-1,20,22,-1,-1,24,-1,26,28,30,32,34,36,-1,-1,-1,-1,-1,-1,-1,-1,-1,-1,-1,-1,-1,-1],"split_conditions":[5.5E1,2E0,3E0,1.1649854E5,5E0,1E0,5E0,8.9943E4,8E0,-1.0740053E1,-2.9445185E1,2.142857E0,1.2E1,-8.524226E0,-2.131682E1,3E0,-4.853043E0,1.3454546E0,2.6666667E0,5E0,5.2972975E0,2.3E0,4E1,-8.491339E0,-2.402762E0,-1.3243636E0,1.6404664E-2,6.739357E-1,4.0095634E0,1.7154026E0,4.654536E0,5.2443824E0,7.868913E0,-3.6009579E0,6.470429E-1,2.6260855E0,-1.7374557E0],"split_indices":[11,10,10,4,10,10,10,2,0,0,0,12,8,0,0,0,0,12,12,8,12,12,8,0,0,0,0,0,0,0,0,0,0,0,0,0,0],"split_type":[0,0,0,0,0,0,0,0,0,0,0,0,0,0,0,0,0,0,0,0,0,0,0,0,0,0,0,0,0,0,0,0,0,0,0,0,0],"sum_hessian":[2.797E3,2.293E3,5.04E2,2.273E3,2E1,4.94E2,1E1,5.5E1,2.218E3,1.6E1,4E0,4.55E2,3.9E1,6E0,4E0,4.7E1,8E0,1.721E3,4.97E2,2.72E2,1.83E2,2.3E1,1.6E1,4.6E1,1E0,1.322E3,3.99E2,3.94E2,1.03E2,1.32E2,1.4E2,1.36E2,4.7E1,1.8E1,5E0,1.3E1,3E0],"tree_param":{"num_deleted":"0","num_feature":"13","num_nodes":"37","size_leaf_vector":"1"}},{"base_weights":[-2.165635E-1,8.269659E-1,-2.2383629E2,-8.454084E0,3.015108E1,-1.2436275E1,-2.9133322E1,-7.2213036E1,-6.7184124E0,3.2603886E1,-5.5605824E1,-7.5957923E0,-4.421663E0,-9.02507E0,1.6188438E1,2.2299E1,4.96316E1,-8.150286E1,-2.936226E1,-8.181384E-1,-6.43559E0,9.276089E-1,2.8075483E0,1.5041922E0,4.605083E0,5.2601714E0,1.358776E0,-1.2238159E0,-8.863118E0,-3.813032E0,6.72933E-1],"categories":[],"categories_nodes":[],"categories_segments":[],"categories_sizes":[],"default_left":[0,0,0,0,0,0,0,0,0,0,0,0,0,0,0,0,0,0,0,0,0,0,0,0,0,0,0,0,0,0,0],"id":10,"left_children":[1,3,5,7,9,-1,-1,11,13,15,17,-1,-1,19,21,23,25,27,29,-1,-1,-1,-1,-1,-1,-1,-1,-1,-1,-1,-1],"loss_changes":[6.5310894E5,7.584887E5,5.1053062E4,2.3379183E5,1.4274412E5,0E0,0E0,2.5126562E3,1.0909862E5,1.1329881E5,1.0519871E4,0E0,0E0,8.695525E4,1.5269207E4,6.963381E4,2.5513625E4,3.3589805E3,3.7375762E3,0E0,0E0,0E0,0E0,0E0,0E0,0E0,0E0,0E0,0E0,0E0,0E0],"parents":[2147483647,0,0,1,1,2,2,3,3,4,4,7,7,8,8,9,9,10,10,13,13,14,14,15,15,16,16,17,17,18,18],"right_children":[2,4,6,8,10,-1,-1,12,14,16,18,-1,-1,20,22,24,26,28,30,-1,-1,-1,-1,-1,-1,-1,-1,-1,-1,-1,-1],"split_conditions":[4E0,1.7E1,7E0,1.1649854E5,2E0,-1.2436275E1,-2.9133322E1,8.9943E4,2.0344827E0,7.6E1,1.2857143E0,-7.5957923E0,-4.421663E0,1E0,3.3E1,2.6666667E0,1E0,8.343872E20,3.610019E22,-8.181384E-1,-6.43559E0,9.276089E-1,2.8075483E0,1.5041922E0,4.605083E0,5.2601714E0,1.358776E0,-1.2238159E0,-8.863118E0,-3.813032E0,6.72933E-1],"split_indices":[10,0,10,4,10,0,0,2,12,11,12,0,0,10,11,12,10,1,1,0,0,0,0,0,0,0,0,0,0,0,0],"split_type":[0,0,0,0,0,0,0,0,0,0,0,0,0,0,0,0,0,0,0,0,0,0,0,0,0,0,0,0,0,0,0],"sum_hessian":[2.797E3,2.785E3,1.2E1,2.116E3,6.69E2,6E0,6E0,5.5E1,2.061E3,6.51E2,1.8E1,4.7E1,8E0,1.873E3,1.88E2,4.07E2,2.44E2,8E0,1E1,1.846E3,2.7E1,1.2E2,6.8E1,3.13E2,9.4E1,2.25E2,1.9E1,1E0,7E0,8E0,2E0],"tree_param":{"num_deleted":"0","num_feature":"13","num_nodes":"31","size_leaf_vector":"1"}},{"base_weights":[-2.1551515E-1,-7.396745E0,2.7319107E1,-6.2697577E0,-1.2510987E2,3.030849E1,-1.4580765E2,-9.412558E0,3.280434E1,-7.7288737E0,-1.9315811E1,2.1028477E1,4.7637463E1,-7.146908E0,-2.3944824E1,-6.5206345E1,-7.831394E0,1.9604E1,5.2107815E1,2.4755535E1,-1.8121677E1,8.0828E1,3.1549816E1,-6.947581E0,-4.376201E0,-9.0407604E-1,1.2831999E0,1.6046631E0,2.8496006E0,4.2643886E0,6.7947173E0,1.8180306E0,4.7443104E0,-3.3829858E0,-6.219867E-1,1.0704689E1,7.061718E0,2.1803205E0,4.3369694E0],"categories":[],"categories_nodes":[],"categories_segments":[],"categories_sizes":[],"default_left":[0,0,0,0,0,0,0,0,0,0,0,0,0,0,0,0,0,0,0,0,0,0,0,0,0,0,0,0,0,0,0,0,0,0,0,0,0,0,0],"id":11,"left_children":[1,3,5,7,9,11,13,15,17,-1,-1,19,21,-1,-1,23,25,27,29,31,33,35,37,-1,-1,-1,-1,-1,-1,-1,-1,-1,-1,-1,-1,-1,-1,-1,-1],"loss_changes":[5.534575E5,2.9372347E5,3.0407616E5,2.704733E5,5.3408094E4,9.066172E4,5.249792E4,1.791916E5,4.0767688E4,0E0,0E0,5.4874875E4,1.0317347E5,0E0,0E0,2.0867188E3,4.96454E4,2.6743203E3,6.996047E3,5.000647E4,5.959123E3,9.5745E3,1.4606906E4,0E0,0E0,0E0,0E0,0E0,0E0,0E0,0E0,0E0,0E0,0E0,0E0,0E0,0E0,0E0,0E0],"parents":[2147483647,0,0,1,1,2,2,3,3,4,4,5,5,6,6,7,7,8,8,11,11,12,12,15,15,16,16,17,17,18,18,19,19,20,20,21,21,22,22],"right_children":[2,4,6,8,10,12,14,16,18,-1,-1,20,22,-1,-1,24,26,28,30,32,34,36,38,-1,-1,-1,-1,-1,-1,-1,-1,-1,-1,-1,-1,-1,-1,-1,-1],"split_conditions":[3E0,2E0,3E0,3.2777777E0,4E0,1.2E1,7E0,1.1649854E5,7.142857E0,-7.7288737E0,-1.9315811E1,1.9E1,2.1E1,-7.146908E0,-2.3944824E1,2.3605146E4,6.2E1,6.8E1,6.7E1,2.2E0,6.9E1,9E0,8.8E1,-6.947581E0,-4.376201E0,-9.0407604E-1,1.2831999E0,1.6046631E0,2.8496006E0,4.2643886E0,6.7947173E0,1.8180306E0,4.7443104E0,-3.3829858E0,-6.219867E-1,1.0704689E1,7.061718E0,2.1803205E0,4.3369694E0],"split_indices":[8,10,10,12,10,8,10,4,12,0,0,7,7,0,0,4,11,11,11,12,11,7,11,0,0,0,0,0,0,0,0,0,0,0,0,0,0,0,0],"split_type":[0,0,0,0,0,0,0,0,0,0,0,0,0,0,0,0,0,0,0,0,0,0,0,0,0,0,0,0,0,0,0,0,0,0,0,0,0,0,0],"sum_hessian":[2.797E3,2.219E3,5.78E2,2.199E3,2E1,5.69E2,9E0,2.036E3,1.63E2,1.3E1,7E0,3.72E2,1.97E2,6E0,3E0,5.5E1,1.981E3,9.8E1,6.5E1,3.4E2,3.2E1,6.3E1,1.34E2,4.4E1,1.1E1,1.872E3,1.09E2,7.2E1,2.6E1,4.3E1,2.2E1,2.65E2,7.5E1,1.3E1,1.9E1,1.5E1,4.8E1,7.5E1,5.9E1],"tree_param":{"num_deleted":"0","num_feature":"13","num_nodes":"39","size_leaf_vector":"1"}},{"base_weights":[-2.0353407E-1,9.1544014E-1,-1.4821814E2,-8.621076E0,2.201599E1,-9.1855354E1,-2.4782154E1,-5.8887928E1,-7.1022134E0,1.271249E1,3.662563E1,-9.959486E0,-2.7699058E0,-6.268263E0,-3.9750473E0,-8.071914E0,2.0670061E1,5.494491E0,3.6551765E1,4.6364014E1,2.2141672E1,-1.063762E0,1.272716E-1,2.463373E0,-5.8490264E-1,8.7440014E-1,-3.4305806E0,2.454867E0,4.83492E0,3.3812969E0,7.1334124E0,-1.3215599E0,2.7600887E0],"categories":[],"categories_nodes":[],"categories_segments":[],"categories_sizes":[],"default_left":[0,0,0,0,0,0,0,0,0,0,0,0,0,0,0,0,0,0,0,0,0,0,0,0,0,0,0,0,0,0,0,0,0],"id":12,"left_children":[1,3,5,7,9,11,-1,13,15,17,19,-1,-1,-1,-1,21,23,25,27,29,31,-1,-1,-1,-1,-1,-1,-1,-1,-1,-1,-1,-1],"loss_changes":[4.635531E5,5.591949E5,9.512869E4,1.4571264E5,1.17105875E5,4.689375E3,0E0,1.5751094E3,5.0231164E4,9.099727E4,4.6366375E4,0E0,0E0,0E0,0E0,4.3097625E4,6.7661895E3,5.3067203E4,1.6230594E4,6.0268156E4,2.6808906E4,0E0,0E0,0E0,0E0,0E0,0E0,0E0,0E0,0E0,0E0,0E0,0E0],"parents":[2147483647,0,0,1,1,2,2,3,3,4,4,5,5,7,7,8,8,9,9,10,10,15,15,16,16,17,17,18,18,19,19,20,20],"right_children":[2,4,6,8,10,12,-1,14,16,18,20,-1,-1,-1,-1,22,24,26,28,30,32,-1,-1,-1,-1,-1,-1,-1,-1,-1,-1,-1,-1],"split_conditions":[3E0,2.2E1,7E0,1.1649854E5,5E0,1.4285715E0,-2.4782154E1,2.3605146E4,5E0,3.5E0,2.3E1,-9.959486E0,-2.7699058E0,-6.268263E0,-3.9750473E0,1.625E0,2.2E1,1.1E1,7.142857E0,1.2E1,1.2E1,-1.063762E0,1.272716E-1,2.463373E0,-5.8490264E-1,8.7440014E-1,-3.4305806E0,2.454867E0,4.83492E0,3.3812969E0,7.1334124E0,-1.3215599E0,2.7600887E0],"split_indices":[10,11,10,4,8,12,0,4,8,12,7,0,0,0,0,12,7,7,12,8,8,0,0,0,0,0,0,0,0,0,0,0,0],"split_type":[0,0,0,0,0,0,0,0,0,0,0,0,0,0,0,0,0,0,0,0,0,0,0,0,0,0,0,0,0,0,0,0,0],"sum_hessian":[2.797E3,2.777E3,2E1,1.913E3,8.64E2,1.4E1,6E0,5.5E1,1.858E3,5.29E2,3.35E2,1.2E1,2E0,4.4E1,1.1E1,1.796E3,6.2E1,4.07E2,1.22E2,1.99E2,1.36E2,1.409E3,3.87E2,5.4E1,8E0,3.77E2,3E1,6.2E1,6E1,1.34E2,6.5E1,1.8E1,1.18E2],"tree_param":{"num_deleted":"0","num_feature":"13","num_nodes":"33","size_leaf_vector":"1"}},{"base_weights":[-1.9393395E-1,8.2656854E-1,-1.351826E2,-6.884139E0,2.2110758E1,-8.3518456E1,-2.2657969E1,-5.3182064E1,-5.574533E0,2.497609E1,-1.965839E1,-9.563964E0,-4.0148177E0,-5.564971E1,-3.1419969E0,-6.713366E0,2.0603468E1,1.6652296E1,3.808294E1,-6.8592343E0,-4.4828003E1,-5.619022E0,-1.4852723E0,-6.285398E-1,-5.679399E0,2.6980839E0,-1.2755066E0,1.1753104E0,3.3778675E0,3.407854E0,5.572646E0,-1.5404699E0,2.1770928E0,-6.03588E0,-1.6237148E0],"categories":[],"categories_nodes":[],"categories_segments":[],"categories_sizes":[],"default_left":[0,0,0,0,0,0,0,0,0,0,0,0,0,0,0,0,0,0,0,0,0,0,0,0,0,0,0,0,0,0,0,0,0,0,0],"id":13,"left_children":[1,3,5,7,9,11,-1,13,15,17,19,-1,-1,21,-1,23,25,27,29,31,33,-1,-1,-1,-1,-1,-1,-1,-1,-1,-1,-1,-1,-1,-1],"loss_changes":[3.8555378E5,4.560669E5,8.023741E4,1.2339291E5,8.893628E4,4.0457266E3,0E0,1.25875E3,5.9315883E4,7.4862125E4,1.5155703E4,0E0,0E0,2.4590625E2,0E0,4.042983E4,1.8001543E4,3.5262797E4,1.7035594E4,8.409089E3,6.1245645E3,0E0,0E0,0E0,0E0,0E0,0E0,0E0,0E0,0E0,0E0,0E0,0E0,0E0,0E0],"parents":[2147483647,0,0,1,1,2,2,3,3,4,4,5,5,7,7,8,8,9,9,10,10,13,13,15,15,16,16,17,17,18,18,19,19,20,20],"right_children":[2,4,6,8,10,12,-1,14,16,18,20,-1,-1,22,-1,24,26,28,30,32,34,-1,-1,-1,-1,-1,-1,-1,-1,-1,-1,-1,-1,-1,-1],"split_conditions":[3E0,2.9E1,7E0,1.1649854E5,1E0,1.4E1,-2.2657969E1,9.5084E4,3.1E1,7.8E1,2E0,-9.563964E0,-4.0148177E0,3E0,-3.1419969E0,1E0,2.4E1,8E0,4.107143E0,2.4545455E0,6E0,-5.619022E0,-1.4852723E0,-6.285398E-1,-5.679399E0,2.6980839E0,-1.2755066E0,1.1753104E0,3.3778675E0,3.407854E0,5.572646E0,-1.5404699E0,2.1770928E0,-6.03588E0,-1.6237148E0],"split_indices":[10,11,10,4,10,9,0,1,0,11,10,0,0,0,0,10,7,8,12,12,9,0,0,0,0,0,0,0,0,0,0,0,0,0,0],"split_type":[0,0,0,0,0,0,0,0,0,0,0,0,0,0,0,0,0,0,0,0,0,0,0,0,0,0,0,0,0,0,0,0,0,0,0],"sum_hessian":[2.797E3,2.777E3,2E1,2.039E3,7.38E2,1.4E1,6E0,5.5E1,1.984E3,6.91E2,4.7E1,1E1,4E0,4.8E1,7E0,1.902E3,8.2E1,4.24E2,2.67E2,3.2E1,1.5E1,4.7E1,1E0,1.887E3,1.5E1,6.9E1,1.3E1,3.31E2,9.3E1,2.2E2,4.7E1,2.5E1,7E0,9E0,6E0],"tree_param":{"num_deleted":"0","num_feature":"13","num_nodes":"35","size_leaf_vector":"1"}},{"base_weights":[-1.9056831E-1,5.4387003E-1,-1.575717E2,-7.8102083E0,1.6044579E1,-8.54746E0,-2.0715857E1,-4.8046833E1,-6.522588E0,1.892777E1,-2.6764542E1,-5.215652E0,-3.5550694E0,-6.2338476E0,-5.6313236E1,1.0388125E1,3.1535517E1,-4.4586315E1,-4.947133E0,-6.857362E-1,1.5512778E0,-5.936729E0,-1.4413391E0,6.3189304E-1,4.0999103E0,2.6281574E0,5.111825E0,-2.7584035E0,-6.428361E0,6.210096E-1,-2.376897E0],"categories":[],"categories_nodes":[],"categories_segments":[],"categories_sizes":[],"default_left":[0,0,0,0,0,0,0,0,0,0,0,0,0,0,0,0,0,0,0,0,0,0,0,0,0,0,0,0,0,0,0],"id":14,"left_children":[1,3,5,7,9,-1,-1,11,13,15,17,-1,-1,19,21,23,25,27,29,-1,-1,-1,-1,-1,-1,-1,-1,-1,-1,-1,-1],"loss_changes":[3.234974E5,3.6089597E5,2.8769094E4,9.35136E4,1.20971266E5,0E0,0E0,1.0216953E3,2.4894195E4,9.81865E4,2.388657E4,0E0,0E0,2.3794523E4,4.2395703E2,6.787635E4,3.6621688E4,9.613367E3,6.2375947E3,0E0,0E0,0E0,0E0,0E0,0E0,0E0,0E0,0E0,0E0,0E0,0E0],"parents":[2147483647,0,0,1,1,2,2,3,3,4,4,7,7,8,8,9,9,10,10,13,13,14,14,15,15,16,16,17,17,18,18],"right_children":[2,4,6,8,10,-1,-1,12,14,16,18,-1,-1,20,22,24,26,28,30,-1,-1,-1,-1,-1,-1,-1,-1,-1,-1,-1,-1],"split_conditions":[4E0,1.5E1,7E0,1.1649854E5,1E0,-8.54746E0,-2.0715857E1,1.3604E4,1E0,4E0,5E0,-5.215652E0,-3.5550694E0,5E0,1E1,7.142857E0,2.4545455E0,2E0,2E0,-6.857362E-1,1.5512778E0,-5.936729E0,-1.4413391E0,6.3189304E-1,4.0999103E0,2.6281574E0,5.111825E0,-2.7584035E0,-6.428361E0,6.210096E-1,-2.376897E0],"split_indices":[10,11,10,4,10,0,0,1,10,8,8,0,0,8,11,12,12,10,10,0,0,0,0,0,0,0,0,0,0,0,0],"split_type":[0,0,0,0,0,0,0,0,0,0,0,0,0,0,0,0,0,0,0,0,0,0,0,0,0,0,0,0,0,0,0],"sum_hessian":[2.797E3,2.785E3,1.2E1,1.81E3,9.75E2,6E0,6E0,5.5E1,1.755E3,9.14E2,6.1E1,3.9E1,1.6E1,1.746E3,9E0,5.46E2,3.68E2,3.3E1,2.8E1,1.698E3,4.8E1,8E0,1E0,4.83E2,6.3E1,2.92E2,7.6E1,1.9E1,1.4E1,1.8E1,1E1],"tree_param":{"num_deleted":"0","num_feature":"13","num_nodes":"31","size_leaf_vector":"1"}},{"base_weights":[-1.8689226E-1,-4.4840927E0,2.2852388E1,-3.5199757E0,-1.170616E2,1.4317374E1,3.5217308E1,-7.6306024E0,1.5344332E1,-7.252979E1,-1.8940212E1,9.653808E0,3.0199581E1,3.77492E1,5.018709E0,-4.1584606E1,-6.4575596E0,1.6604513E1,-3.7857517E1,-8.037528E0,-3.2822258E0,5.9779806E0,1.8803682E1,2.5993515E1,6.3020905E1,3.1185814E1,5.1030582E1,-4.874306E0,2.5779602E1,-4.4006925E0,-4.1998902E-1,-5.933303E-1,-4.318947E0,1.134981E0,2.734293E0,-4.545465E0,-1.509816E0,7.4930245E-1,-1.5527418E0,2.0564733E0,-2.0337138E0,2.3431551E0,4.2583976E0,6.8719316E0,1.7264435E0,3.4280374E0,-1.3715309E0,7.142424E0,3.169017E0,9.7525436E-1,-1.8688773E0,3.033037E0,3.7882692E-1],"categories":[],"categories_nodes":[],"categories_segments":[],"categories_sizes":[],"default_left":[0,0,0,0,0,0,0,0,0,0,0,0,0,0,0,0,0,0,0,0,0,0,0,0,0,0,0,0,0,0,0,0,0,0,0,0,0,0,0,0,0,0,0,0,0,0,0,0,0,0,0,0,0],"id":15,"left_children":[1,3,5,7,9,11,13,15,17,19,-1,21,23,25,27,29,31,33,35,-1,-1,37,39,41,43,45,47,49,51,-1,-1,-1,-1,-1,-1,-1,-1,-1,-1,-1,-1,-1,-1,-1,-1,-1,-1,-1,-1,-1,-1,-1,-1],"loss_changes":[2.771168E5,2.5562884E5,4.5931094E4,1.8157034E5,5.069178E4,1.9114195E4,1.3496797E4,7.628377E4,2.8720016E4,1.72325E3,0E0,6.748797E3,6.5067383E3,1.2791766E4,3.206475E3,5.6108594E3,3.554243E4,2.2824812E4,1.0427754E3,0E0,0E0,4.9058447E3,4.4161055E3,1.297418E3,3.780332E2,1.6171406E4,1.864089E4,2.4049463E3,3.854873E2,0E0,0E0,0E0,0E0,0E0,0E0,0E0,0E0,0E0,0E0,0E0,0E0,0E0,0E0,0E0,0E0,0E0,0E0,0E0,0E0,0E0,0E0,0E0,0E0],"parents":[2147483647,0,0,1,1,2,2,3,3,4,4,5,5,6,6,7,7,8,8,9,9,11,11,12,12,13,13,14,14,15,15,16,16,17,17,18,18,21,21,22,22,23,23,24,24,25,25,26,26,27,27,28,28],"right_children":[2,4,6,8,10,12,14,16,18,20,-1,22,24,26,28,30,32,34,36,-1,-1,38,40,42,44,46,48,50,52,-1,-1,-1,-1,-1,-1,-1,-1,-1,-1,-1,-1,-1,-1,-1,-1,-1,-1,-1,-1,-1,-1,-1,-1],"split_conditions":[2.142857E0,3E0,6.4E1,3E0,7E0,6E0,1E0,4.216553E5,2E0,1.3E1,-1.8940212E1,2E0,2E0,1E1,6E1,1.79886E5,1E0,1.2E1,8.9E1,-8.037528E0,-3.2822258E0,5E0,6.3E1,1.3E1,1.65E2,1.8E1,2.1E1,2.7E1,2.8E1,-4.4006925E0,-4.1998902E-1,-5.933303E-1,-4.318947E0,1.134981E0,2.734293E0,-4.545465E0,-1.509816E0,7.4930245E-1,-1.5527418E0,2.0564733E0,-2.0337138E0,2.3431551E0,4.2583976E0,6.8719316E0,1.7264435E0,3.4280374E0,-1.3715309E0,7.142424E0,3.169017E0,9.7525436E-1,-1.8688773E0,3.033037E0,3.7882692E-1],"split_indices":[12,10,11,8,10,12,10,5,10,8,0,8,8,8,6,1,10,8,11,0,0,7,11,9,0,7,7,6,7,0,0,0,0,0,0,0,0,0,0,0,0,0,0,0,0,0,0,0,0,0,0,0,0],"split_type":[0,0,0,0,0,0,0,0,0,0,0,0,0,0,0,0,0,0,0,0,0,0,0,0,0,0,0,0,0,0,0,0,0,0,0,0,0,0,0,0,0,0,0,0,0,0,0,0,0,0,0,0,0],"sum_hessian":[2.797E3,2.358E3,4.39E2,2.339E3,1.9E1,2.61E2,1.78E2,1.921E3,4.18E2,1.3E1,6E0,2.03E2,5.8E1,1.64E2,1.4E1,6.3E1,1.858E3,4.09E2,9E0,1E1,3E0,1.46E2,5.7E1,5.3E1,5E0,1.12E2,5.2E1,1E1,4E0,5.9E1,4E0,1.833E3,2.5E1,2.76E2,1.33E2,6E0,3E0,1.37E2,9E0,5.5E1,2E0,4.8E1,5E0,4E0,1E0,1.05E2,7E0,2.4E1,2.8E1,5E0,5E0,3E0,1E0],"tree_param":{"num_deleted":"0","num_feature":"13","num_nodes":"53","size_leaf_vector":"1"}},{"base_weights":[-1.7281298E-1,-7.2761335E0,1.1357762E1,-6.470317E0,-1.453907E2,5.3756466E0,2.6149399E1,-3.9485996E1,-5.2553883E0,-8.336568E0,-1.7284645E1,3.1051407E0,2.3637878E1,2.8676556E1,-3.320913E1,-4.1539855E0,-8.174805E0,-7.048034E0,1.3995758E1,-3.550503E-1,1.4782785E1,2.0785763E1,5.725108E1,2.4391344E1,4.4069855E1,-1.6786476E1,-8.23558E0,-3.4645185E-1,-1.0160156E0,-6.398717E-1,-4.416263E0,2.074276E0,-8.313443E-3,1.4782976E-1,-1.7764755E0,1.7408278E0,-3.8097045E-1,1.5656881E0,2.6477013E0,6.214081E0,1.6401215E0,9.4349664E-1,2.907E0,3.61396E0,6.5106263E0,-2.117522E0,1.9752401E-1],"categories":[],"categories_nodes":[],"categories_segments":[],"categories_sizes":[],"default_left":[0,0,0,0,0,0,0,0,0,0,0,0,0,0,0,0,0,0,0,0,0,0,0,0,0,0,0,0,0,0,0,0,0,0,0,0,0,0,0,0,0,0,0,0,0,0,0],"id":16,"left_children":[1,3,5,7,9,11,13,15,17,-1,-1,19,21,23,25,-1,27,29,31,33,35,37,39,41,43,45,-1,-1,-1,-1,-1,-1,-1,-1,-1,-1,-1,-1,-1,-1,-1,-1,-1,-1,-1,-1,-1],"loss_changes":[2.2925388E5,1.9182222E5,9.4273234E4,6.8904945E4,2.6199844E3,3.1481088E4,4.7004875E4,3.5832578E3,5.7489586E4,0E0,0E0,2.7401113E4,6.8629688E3,1.8384328E4,9.11008E3,0E0,1.1557831E1,3.6396305E4,1.349035E4,1.6751316E4,7.6325586E3,1.8914414E3,1.7928516E2,1.6030094E4,8.157E3,9.475698E2,0E0,0E0,0E0,0E0,0E0,0E0,0E0,0E0,0E0,0E0,0E0,0E0,0E0,0E0,0E0,0E0,0E0,0E0,0E0,0E0,0E0],"parents":[2147483647,0,0,1,1,2,2,3,3,4,4,5,5,6,6,7,7,8,8,11,11,12,12,13,13,14,14,16,16,17,17,18,18,19,19,20,20,21,21,22,22,23,23,24,24,25,25],"right_children":[2,4,6,8,10,12,14,16,18,-1,-1,20,22,24,26,-1,28,30,32,34,36,38,40,42,44,46,-1,-1,-1,-1,-1,-1,-1,-1,-1,-1,-1,-1,-1,-1,-1,-1,-1,-1,-1,-1,-1],"split_conditions":[1.2857143E0,4E0,6.4E1,4.216553E5,1.8E1,4.107143E0,2E0,1E0,5E0,-8.336568E0,-1.7284645E1,3E0,7.5E1,4.107143E0,5E0,-4.1539855E0,3E0,1E0,2.3E1,4E0,2.9E1,9E0,1.65E2,2E0,7E0,3.610019E22,-8.23558E0,-3.4645185E-1,-1.0160156E0,-6.398717E-1,-4.416263E0,2.074276E0,-8.313443E-3,1.4782976E-1,-1.7764755E0,1.7408278E0,-3.8097045E-1,1.5656881E0,2.6477013E0,6.214081E0,1.6401215E0,9.4349664E-1,2.907E0,3.61396E0,6.5106263E0,-2.117522E0,1.9752401E-1],"split_indices":[12,10,11,5,0,12,10,9,8,0,0,8,0,12,10,0,0,10,7,7,7,12,0,8,8,1,0,0,0,0,0,0,0,0,0,0,0,0,0,0,0,0,0,0,0,0,0],"split_type":[0,0,0,0,0,0,0,0,0,0,0,0,0,0,0,0,0,0,0,0,0,0,0,0,0,0,0,0,0,0,0,0,0,0,0,0,0,0,0,0,0,0,0,0,0,0,0],"sum_hessian":[2.797E3,1.731E3,1.066E3,1.722E3,9E0,7.6E2,3.06E2,6E1,1.662E3,4E0,5E0,6.77E2,8.3E1,2.94E2,1.2E1,5.6E1,4E0,1.521E3,1.41E2,5.23E2,1.54E2,7.8E1,5E0,2.32E2,6.2E1,1E1,2E0,2E0,2E0,1.496E3,2.5E1,9.5E1,4.6E1,4.74E2,4.9E1,1.35E2,1.9E1,4.3E1,3.5E1,4E0,1E0,5.6E1,1.76E2,4.7E1,1.5E1,8E0,2E0],"tree_param":{"num_deleted":"0","num_feature":"13","num_nodes":"47","size_leaf_vector":"1"}},{"base_weights":[-1.6213448E-1,4.0505597E-1,-1.2170294E2,-6.2807283E0,1.1791896E1,-6.637478E1,-1.5964498E1,-3.336452E1,-5.2365637E0,1.3950033E1,-2.1589476E1,-7.669641E0,-2.7047129E0,-3.5914505E1,-2.3039246E0,-5.010872E0,-4.6884117E0,8.851572E0,2.7252905E1,-4.3616005E1,-1.1086748E1,-3.6662445E0,-9.482829E-1,-2.9240966E-1,3.9846804E-2,-6.496924E-1,3.025577E-2,5.186411E-1,2.0202534E0,2.0332303E0,3.3722005E0,-4.6297255E0,-1.2989849E0,-3.7358094E-2,-2.8079803E0],"categories":[],"categories_nodes":[],"categories_segments":[],"categories_sizes":[],"default_left":[0,0,0,0,0,0,0,0,0,0,0,0,0,0,0,0,0,0,0,0,0,0,0,0,0,0,0,0,0,0,0,0,0,0,0],"id":17,"left_children":[1,3,5,7,9,11,-1,13,15,17,19,-1,-1,21,23,25,-1,27,29,31,33,-1,-1,-1,-1,-1,-1,-1,-1,-1,-1,-1,-1,-1,-1],"loss_changes":[1.929344E5,2.1217212E5,1.6694031E4,4.9484875E4,7.457603E4,7.670625E2,0E0,5.0655234E3,1.5669023E4,6.5480375E4,1.4090775E4,0E0,0E0,8.384922E2,1.122085E1,1.3298887E4,0E0,2.9100602E4,1.1312734E4,1.0409297E3,7.9996855E3,0E0,0E0,0E0,0E0,0E0,0E0,0E0,0E0,0E0,0E0,0E0,0E0,0E0,0E0],"parents":[2147483647,0,0,1,1,2,2,3,3,4,4,5,5,7,7,8,8,9,9,10,10,13,13,14,14,15,15,17,17,18,18,19,19,20,20],"right_children":[2,4,6,8,10,12,-1,14,16,18,20,-1,-1,22,24,26,-1,28,30,32,34,-1,-1,-1,-1,-1,-1,-1,-1,-1,-1,-1,-1,-1,-1],"split_conditions":[4E0,1.2E1,7E0,4.216553E5,1E0,1.8E1,-1.5964498E1,1.79886E5,1E0,7.8E1,5.4E1,-7.669641E0,-2.7047129E0,3E0,3E0,1.3055556E0,-4.6884117E0,2.6666667E0,9.1E1,1.8E1,2E0,-3.6662445E0,-9.482829E-1,-2.9240966E-1,3.9846804E-2,-6.496924E-1,3.025577E-2,5.186411E-1,2.0202534E0,2.0332303E0,3.3722005E0,-4.6297255E0,-1.2989849E0,-3.7358094E-2,-2.8079803E0],"split_indices":[10,11,10,5,10,0,0,1,10,11,11,0,0,0,0,12,0,12,11,6,10,0,0,0,0,0,0,0,0,0,0,0,0,0,0],"split_type":[0,0,0,0,0,0,0,0,0,0,0,0,0,0,0,0,0,0,0,0,0,0,0,0,0,0,0,0,0,0,0,0,0,0,0],"sum_hessian":[2.797E3,2.785E3,1.2E1,1.755E3,1.03E3,6E0,6E0,6.4E1,1.691E3,9.68E2,6.2E1,4E0,2E0,5.9E1,5E0,1.683E3,8E0,7.01E2,2.67E2,1.9E1,4.3E1,5.7E1,2E0,4E0,1E0,1.315E3,3.68E2,5.31E2,1.7E2,1.31E2,1.36E2,1.7E1,2E0,2.7E1,1.6E1],"tree_param":{"num_deleted":"0","num_feature":"13","num_nodes":"35","size_leaf_vector":"1"}},{"base_weights":[-1.5925121E-1,5.039301E-1,-8.788108E1,-4.241162E0,1.4436043E1,-5.4918324E1,-1.4596112E1,-5.9552875E0,1.7157293E1,8.443809E0,2.487211E1,-6.3479185E0,-2.5100763E1,-3.0102932E1,-5.106391E0,1.0624531E1,2.8723093E1,1.0200482E1,-2.1827667E1,2.2368185E1,5.8905884E1,-7.3498386E-1,-2.7701035E0,-3.2399948E0,-2.1156208E-1,-4.5984116E-1,-4.53902E0,1.1705384E0,-1.6047025E-1,1.836468E0,3.878498E0,5.4109E-1,2.1185718E0,-1.2270297E0,-3.2876115E0,2.631817E0,1.0790161E0,4.045648E0,7.081019E0],"categories":[],"categories_nodes":[],"categories_segments":[],"categories_sizes":[],"default_left":[0,0,0,0,0,0,0,0,0,0,0,0,0,0,0,0,0,0,0,0,0,0,0,0,0,0,0,0,0,0,0,0,0,0,0,0,0,0,0],"id":18,"left_children":[1,3,5,7,9,11,-1,13,15,17,19,-1,21,23,25,27,29,31,33,35,37,-1,-1,-1,-1,-1,-1,-1,-1,-1,-1,-1,-1,-1,-1,-1,-1,-1,-1],"loss_changes":[1.6281927E5,1.8371248E5,3.2188094E4,7.613907E4,4.393997E4,2.235586E3,0E0,3.9204086E4,1.1330555E4,2.4152352E4,2.0583406E4,0E0,2.7187988E1,4.110129E3,3.777124E4,1.340585E3,5.0201133E3,2.2299219E4,2.2364531E3,1.07376875E4,8.689336E2,0E0,0E0,0E0,0E0,0E0,0E0,0E0,0E0,0E0,0E0,0E0,0E0,0E0,0E0,0E0,0E0,0E0,0E0],"parents":[2147483647,0,0,1,1,2,2,3,3,4,4,5,5,7,7,8,8,9,9,10,10,12,12,13,13,14,14,15,15,16,16,17,17,18,18,19,19,20,20],"right_children":[2,4,6,8,10,12,-1,14,16,18,20,-1,22,24,26,28,30,32,34,36,38,-1,-1,-1,-1,-1,-1,-1,-1,-1,-1,-1,-1,-1,-1,-1,-1,-1,-1],"split_conditions":[3E0,2E0,7E0,3.2777777E0,1.7142857E0,1.4E1,-1.4596112E1,4.216553E5,9E0,1E0,6E0,-6.3479185E0,1.5E1,1.79886E5,9E0,1.9E1,4E1,9E0,2E0,2.1E1,7E0,-7.3498386E-1,-2.7701035E0,-3.2399948E0,-2.1156208E-1,-4.5984116E-1,-4.53902E0,1.1705384E0,-1.6047025E-1,1.836468E0,3.878498E0,5.4109E-1,2.1185718E0,-1.2270297E0,-3.2876115E0,2.631817E0,1.0790161E0,4.045648E0,7.081019E0],"split_indices":[10,8,10,12,12,9,0,5,12,10,12,0,9,1,7,6,11,8,10,7,8,0,0,0,0,0,0,0,0,0,0,0,0,0,0,0,0,0,0],"split_type":[0,0,0,0,0,0,0,0,0,0,0,0,0,0,0,0,0,0,0,0,0,0,0,0,0,0,0,0,0,0,0,0,0,0,0,0,0,0,0],"sum_hessian":[2.797E3,2.777E3,2E1,2.072E3,7.05E2,1.4E1,6E0,1.919E3,1.53E2,4.49E2,2.56E2,1E1,4E0,6.4E1,1.855E3,9.9E1,5.4E1,4.25E2,2.4E1,2.4E2,1.6E1,1E0,3E0,5.9E1,5E0,1.833E3,2.2E1,9.1E1,8E0,2.8E1,2.6E1,2.97E2,1.28E2,1.4E1,1E1,1.78E2,6.2E1,8E0,8E0],"tree_param":{"num_deleted":"0","num_feature":"13","num_nodes":"39","size_leaf_vector":"1"}},{"base_weights":[-1.4804356E-1,3.30066E-1,-1.0259921E2,-3.5966103E0,1.4197401E1,-5.709123E1,-1.33450165E1,-6.102417E0,3.8223817E0,1.6463419E1,-1.2313408E1,-6.5482345E0,-2.4075623E1,-2.917203E1,-5.1987414E0,2.2283208E0,2.0042833E1,1.2453425E1,2.8490396E1,-1.8210591E0,-2.743626E1,-6.9823456E-1,-2.9131088E0,-3.0714548E0,-5.75293E-1,-4.7858834E-1,-3.8518734E0,1.1275288E-1,1.7314862E0,1.7005948E0,4.3366237E0,1.5474223E0,-3.443959E-1,3.383846E0,1.9247435E0,-8.7702554E-1,1.5368205E0,-3.1140425E0,3.9341432E-1],"categories":[],"categories_nodes":[],"categories_segments":[],"categories_sizes":[],"default_left":[0,0,0,0,0,0,0,0,0,0,0,0,0,0,0,0,0,0,0,0,0,0,0,0,0,0,0,0,0,0,0,0,0,0,0,0,0,0,0],"id":19,"left_children":[1,3,5,7,9,11,-1,13,15,17,19,-1,21,23,25,27,29,31,33,35,37,-1,-1,-1,-1,-1,-1,-1,-1,-1,-1,-1,-1,-1,-1,-1,-1,-1,-1],"loss_changes":[1.3708795E5,1.5175583E5,1.0632703E4,4.040202E4,3.7148203E4,3.6273828E2,0E0,3.3704594E4,1.4150494E4,2.6990531E4,7.725075E3,0E0,5.584021E1,2.0268867E3,2.1330707E4,8.300656E3,2.733211E3,2.0559016E4,6.3186016E3,3.71833E3,2.4465332E3,0E0,0E0,0E0,0E0,0E0,0E0,0E0,0E0,0E0,0E0,0E0,0E0,0E0,0E0,0E0,0E0,0E0,0E0],"parents":[2147483647,0,0,1,1,2,2,3,3,4,4,5,5,7,7,8,8,9,9,10,10,12,12,13,13,14,14,15,15,16,16,17,17,18,18,19,19,20,20],"right_children":[2,4,6,8,10,12,-1,14,16,18,20,-1,22,24,26,28,30,32,34,36,38,-1,-1,-1,-1,-1,-1,-1,-1,-1,-1,-1,-1,-1,-1,-1,-1,-1,-1],"split_conditions":[4E0,4.3E1,7E0,1.5641025E0,1E0,1.8E1,-1.33450165E1,4.216553E5,6E0,9E1,2E0,-6.5482345E0,1.23E2,1E0,1E0,5E0,2E0,2.4E1,2.2E1,2.3E0,3.610019E22,-6.9823456E-1,-2.9131088E0,-3.0714548E0,-5.75293E-1,-4.7858834E-1,-3.8518734E0,1.1275288E-1,1.7314862E0,1.7005948E0,4.3366237E0,1.5474223E0,-3.443959E-1,3.383846E0,1.9247435E0,-8.7702554E-1,1.5368205E0,-3.1140425E0,3.9341432E-1],"split_indices":[10,11,10,12,10,0,0,5,12,11,10,0,0,9,10,8,7,7,7,12,1,0,0,0,0,0,0,0,0,0,0,0,0,0,0,0,0,0,0],"split_type":[0,0,0,0,0,0,0,0,0,0,0,0,0,0,0,0,0,0,0,0,0,0,0,0,0,0,0,0,0,0,0,0,0,0,0,0,0,0,0],"sum_hessian":[2.797E3,2.785E3,1.2E1,2.171E3,6.14E2,6E0,6E0,1.623E3,5.48E2,5.66E2,4.8E1,4E0,2E0,6E1,1.563E3,5E2,4.8E1,4.26E2,1.4E2,2.9E1,1.9E1,1E0,1E0,5.6E1,4E0,1.545E3,1.8E1,4.67E2,3.3E1,4.4E1,4E0,3.58E2,6.8E1,8.7E1,5.3E1,2.1E1,8E0,1.7E1,2E0],"tree_param":{"num_deleted":"0","num_feature":"13","num_nodes":"39","size_leaf_vector":"1"}},{"base_weights":[-1.4008644E-1,-3.0836077E0,1.440908E1,-2.5257344E0,-5.6534195E1,1.5614933E1,-1.0109944E2,-4.37628E0,1.1496892E1,-3.8333473E1,-8.814395E0,2.1095264E1,3.8925304E0,-1.1253703E1,-2.767453E0,-4.1301637E0,-6.628119E0,7.1853786E0,2.4135551E1,-3.9436395E0,-1.0343384E0,1.2373764E1,4.174678E1,-2.3325844E1,1.0330566E1,-2.4916575E0,-3.4517393E-1,7.8124124E-1,-1.9082226E0,1.6729676E0,3.1049378E0,1.639847E0,5.0265398E-2,6.7245803E0,3.4390416E0,-3.2571983E0,8.402439E-2,3.5387146E-1,1.7289835E0],"categories":[],"categories_nodes":[],"categories_segments":[],"categories_sizes":[],"default_left":[0,0,0,0,0,0,0,0,0,0,0,0,0,0,0,0,0,0,0,0,0,0,0,0,0,0,0,0,0,0,0,0,0,0,0,0,0,0,0],"id":20,"left_children":[1,3,5,7,9,11,13,15,17,19,-1,21,23,-1,-1,25,-1,27,29,-1,-1,31,33,35,37,-1,-1,-1,-1,-1,-1,-1,-1,-1,-1,-1,-1,-1,-1],"loss_changes":[1.1987096E5,6.927503E4,6.718253E4,5.9863926E4,1.042882E4,2.9919203E4,1.0846094E3,3.0761555E4,1.4484855E4,1.1689844E2,0E0,5.6759125E4,2.6525898E4,0E0,0E0,2.8541062E4,0E0,3.4761553E3,2.9623516E3,0E0,0E0,1.0741746E4,1.5319922E4,6.507217E3,5.7053076E3,0E0,0E0,0E0,0E0,0E0,0E0,0E0,0E0,0E0,0E0,0E0,0E0,0E0,0E0],"parents":[2147483647,0,0,1,1,2,2,3,3,4,4,5,5,6,6,7,7,8,8,9,9,11,11,12,12,15,15,17,17,18,18,21,21,22,22,23,23,24,24],"right_children":[2,4,6,8,10,12,14,16,18,20,-1,22,24,-1,-1,26,-1,28,30,-1,-1,32,34,36,38,-1,-1,-1,-1,-1,-1,-1,-1,-1,-1,-1,-1,-1,-1],"split_conditions":[4E0,2E0,5E0,2.6666667E0,4E0,2.3E1,3.9708E22,2E1,7.142857E0,8.5E1,-8.814395E0,1E1,1.3E1,-1.1253703E1,-2.767453E0,4.216553E5,-6.628119E0,1E1,4.1E1,-3.9436395E0,-1.0343384E0,1.1E1,9E0,8.9E1,8.6E1,-2.4916575E0,-3.4517393E-1,7.8124124E-1,-1.9082226E0,1.6729676E0,3.1049378E0,1.639847E0,5.0265398E-2,6.7245803E0,3.4390416E0,-3.2571983E0,8.402439E-2,3.5387146E-1,1.7289835E0],"split_indices":[8,10,10,12,10,7,1,7,12,11,0,8,8,0,0,5,0,7,11,0,0,7,7,11,11,0,0,0,0,0,0,0,0,0,0,0,0,0,0],"split_type":[0,0,0,0,0,0,0,0,0,0,0,0,0,0,0,0,0,0,0,0,0,0,0,0,0,0,0,0,0,0,0,0,0,0,0,0,0,0,0],"sum_hessian":[2.797E3,2.327E3,4.7E2,2.304E3,2.3E1,4.66E2,4E0,2.036E3,2.68E2,1.6E1,7E0,3.17E2,1.49E2,3E0,1E0,2.029E3,7E0,2.01E2,6.7E1,1.5E1,1E0,2.24E2,9.3E1,2.8E1,1.21E2,6.3E1,1.966E3,1.97E2,4E0,3.4E1,3.3E1,1.67E2,5.7E1,1.9E1,7.4E1,2E1,8E0,6.2E1,5.9E1],"tree_param":{"num_deleted":"0","num_feature":"13","num_nodes":"39","size_leaf_vector":"1"}},{"base_weights":[-1.3426451E-1,6.090498E-1,-4.7772404E1,-3.2449088E0,1.2131002E1,-3.4063152E1,-1.1341096E1,-6.088524E0,4.2471485E0,8.155926E0,2.2272537E1,-4.0861423E1,-1.6494974E1,-5.367338E0,-2.6445168E1,2.2223198E0,2.0474781E1,1.0222264E1,-1.6425402E1,4.5085567E1,1.0428098E1,-4.1861626E1,-7.928192E-1,-2.038764E1,1.9789022E0,-2.311405E0,-4.596877E-1,-2.198184E0,-5.625648E0,2.652205E-1,-4.1468606E0,1.3466787E0,2.684294E0,6.3028795E-1,2.0561721E0,-8.905658E-1,-2.6678429E0,6.7159953E0,3.7276242E0,5.395867E-1,1.710063E0,-2.7987344E0,-4.570233E0,-2.875757E0,-1.2692305E0,-1.5105896E-1,4.478943E-1],"categories":[],"categories_nodes":[],"categories_segments":[],"categories_sizes":[],"default_left":[0,0,0,0,0,0,0,0,0,0,0,0,0,0,0,0,0,0,0,0,0,0,0,0,0,0,0,0,0,0,0,0,0,0,0,0,0,0,0,0,0,0,0,0,0,0,0],"id":21,"left_children":[1,3,5,7,9,11,-1,13,15,17,19,21,23,25,27,29,31,33,35,37,39,41,-1,43,45,-1,-1,-1,-1,-1,-1,-1,-1,-1,-1,-1,-1,-1,-1,-1,-1,-1,-1,-1,-1,-1,-1],"loss_changes":[9.910659E4,1.2241991E5,3.483064E4,4.404102E4,2.767489E4,3.7450234E3,0E0,2.185009E4,1.8650799E4,2.5462988E4,5.195011E4,5.245469E2,9.0329663E2,1.969246E4,5.5493164E3,9.632499E3,2.4500781E3,1.851159E4,2.7693164E3,8.874031E3,4.239253E3,5.3089844E1,0E0,2.7909424E2,3.2937458E1,0E0,0E0,0E0,0E0,0E0,0E0,0E0,0E0,0E0,0E0,0E0,0E0,0E0,0E0,0E0,0E0,0E0,0E0,0E0,0E0,0E0,0E0],"parents":[2147483647,0,0,1,1,2,2,3,3,4,4,5,5,7,7,8,8,9,9,10,10,11,11,12,12,13,13,14,14,15,15,16,16,17,17,18,18,19,19,20,20,21,21,23,23,24,24],"right_children":[2,4,6,8,10,12,-1,14,16,18,20,22,24,26,28,30,32,34,36,38,40,42,-1,44,46,-1,-1,-1,-1,-1,-1,-1,-1,-1,-1,-1,-1,-1,-1,-1,-1,-1,-1,-1,-1,-1,-1],"split_conditions":[2E0,2E0,7E0,2E0,1.2E1,1.4285715E0,-1.1341096E1,5E0,7.142857E0,1.7E1,2.2E1,2E1,3.610019E22,4.216553E5,4.5E1,4.3E1,4E1,6.7E1,2.5E1,1E1,9E1,1.9E1,-7.928192E-1,8.1E1,4.2E1,-2.311405E0,-4.596877E-1,-2.198184E0,-5.625648E0,2.652205E-1,-4.1468606E0,1.3466787E0,2.684294E0,6.3028795E-1,2.0561721E0,-8.905658E-1,-2.6678429E0,6.7159953E0,3.7276242E0,5.395867E-1,1.710063E0,-2.7987344E0,-4.570233E0,-2.875757E0,-1.2692305E0,-1.5105896E-1,4.478943E-1],"split_indices":[10,8,10,12,8,12,0,7,12,7,7,9,1,5,0,6,11,11,7,7,11,11,0,11,0,0,0,0,0,0,0,0,0,0,0,0,0,0,0,0,0,0,0,0,0,0,0],"split_type":[0,0,0,0,0,0,0,0,0,0,0,0,0,0,0,0,0,0,0,0,0,0,0,0,0,0,0,0,0,0,0,0,0,0,0,0,0,0,0,0,0,0,0,0,0,0,0],"sum_hessian":[2.797E3,2.755E3,4.2E1,2.065E3,6.9E2,3.6E1,6E0,1.497E3,5.68E2,4.97E2,1.93E2,2.5E1,1.1E1,1.447E3,5E1,5.06E2,6.2E1,4.59E2,3.8E1,6.5E1,1.28E2,2.4E1,1E0,9E0,2E0,5.9E1,1.388E3,4.5E1,5E0,5.02E2,4E0,3.1E1,3.1E1,3.34E2,1.25E2,2.3E1,1.5E1,1.5E1,5E1,7.4E1,5.4E1,7E0,1.7E1,3E0,6E0,1E0,1E0],"tree_param":{"num_deleted":"0","num_feature":"13","num_nodes":"47","size_leaf_vector":"1"}},{"base_weights":[-1.2867579E-1,-2.5339923E0,1.2295545E1,-1.8816876E0,-4.3172844E1,1.4557287E1,-3.2778557E1,-4.4520683E0,4.0939183E0,-3.2064346E1,-8.620008E0,1.2309292E1,2.7564415E1,-1.9547325E1,-7.385528E0,-2.3998255E1,-3.88935E0,2.6398728E0,1.49316E1,-3.7626245E0,-2.3623238E1,8.032414E0,1.8024118E1,1.5488671E1,3.619098E1,-2.313777E1,-1.1963272E0,-3.1133046E0,-2.1070228E0,-7.8692096E-1,-2.678307E-1,4.2412812E-1,-1.3083385E0,2.7018483E0,-2.9268962E-1,-1.4068232E0,-3.9919605E0,1.1273061E0,-1.8092409E0,3.2441845E0,8.374734E-1,7.9589045E-1,2.3564641E0,4.287454E0,2.3975701E0,-1.4591835E0,-3.0820007E0,-4.4317728E-1,4.2550048E-1],"categories":[],"categories_nodes":[],"categories_segments":[],"categories_sizes":[],"default_left":[0,0,0,0,0,0,0,0,0,0,0,0,0,0,0,0,0,0,0,0,0,0,0,0,0,0,0,0,0,0,0,0,0,0,0,0,0,0,0,0,0,0,0,0,0,0,0,0,0],"id":22,"left_children":[1,3,5,7,9,11,13,15,17,19,-1,21,23,25,-1,27,29,31,33,-1,35,37,39,41,43,45,47,-1,-1,-1,-1,-1,-1,-1,-1,-1,-1,-1,-1,-1,-1,-1,-1,-1,-1,-1,-1,-1,-1],"loss_changes":[8.364711E4,6.208216E4,4.6760664E4,3.5483496E4,1.4920875E4,1.2321609E4,1.051323E4,1.7670041E4,1.0912726E4,5.6655273E2,0E0,8.9230625E3,6.002297E3,1.1583076E3,0E0,2.8410938E2,7.550799E3,1.5515617E4,1.7779072E4,0E0,1.7740791E3,1.8321475E4,2.1709613E4,1.5151362E3,1.9111484E3,5.350581E2,8.940717E1,0E0,0E0,0E0,0E0,0E0,0E0,0E0,0E0,0E0,0E0,0E0,0E0,0E0,0E0,0E0,0E0,0E0,0E0,0E0,0E0,0E0,0E0],"parents":[2147483647,0,0,1,1,2,2,3,3,4,4,5,5,6,6,7,7,8,8,9,9,11,11,12,12,13,13,15,15,16,16,17,17,18,18,20,20,21,21,22,22,23,23,24,24,25,25,26,26],"right_children":[2,4,6,8,10,12,14,16,18,20,-1,22,24,26,-1,28,30,32,34,-1,36,38,40,42,44,46,48,-1,-1,-1,-1,-1,-1,-1,-1,-1,-1,-1,-1,-1,-1,-1,-1,-1,-1,-1,-1,-1,-1],"split_conditions":[6.1E1,1E0,2E0,8E0,4E0,4.107143E0,5E0,2.3605146E4,8E0,2E0,-8.620008E0,8E0,3.4E1,5.583161E22,-7.385528E0,3.308E3,9E-1,8E0,2.4E1,-3.7626245E0,1.3E1,1.4E1,2.3E1,9E0,6.8634875E21,4.2667458E21,7.849544E23,-3.1133046E0,-2.1070228E0,-7.8692096E-1,-2.678307E-1,4.2412812E-1,-1.3083385E0,2.7018483E0,-2.9268962E-1,-1.4068232E0,-3.9919605E0,1.1273061E0,-1.8092409E0,3.2441845E0,8.374734E-1,7.9589045E-1,2.3564641E0,4.287454E0,2.3975701E0,-1.4591835E0,-3.0820007E0,-4.4317728E-1,4.2550048E-1],"split_indices":[11,10,10,11,10,12,10,4,8,8,0,8,0,4,0,1,12,7,7,0,7,7,7,12,1,1,1,0,0,0,0,0,0,0,0,0,0,0,0,0,0,0,0,0,0,0,0,0,0],"split_type":[0,0,0,0,0,0,0,0,0,0,0,0,0,0,0,0,0,0,0,0,0,0,0,0,0,0,0,0,0,0,0,0,0,0,0,0,0,0,0,0,0,0,0,0,0,0,0,0,0],"sum_hessian":[2.797E3,2.344E3,4.53E2,2.308E3,3.6E1,4.32E2,2.1E1,1.614E3,6.94E2,3E1,6E0,3.7E2,6.2E1,1.7E1,4E0,4.4E1,1.57E3,6.13E2,8.1E1,1.6E1,1.4E1,2.13E2,1.57E2,2.7E1,3.5E1,1.4E1,3E0,1E1,3.4E1,3.65E2,1.205E3,5.57E2,5.6E1,4.8E1,3.3E1,1E1,4E0,1.9E2,2.3E1,6.2E1,9.5E1,1.5E1,1.2E1,2.1E1,1.4E1,8E0,6E0,2E0,1E0],"tree_param":{"num_deleted":"0","num_feature":"13","num_nodes":"49","size_leaf_vector":"1"}},{"base_weights":[-1.23404324E-1,-4.1177607E0,6.3605213E0,-3.5693805E0,-6.665105E1,3.051849E0,1.5049473E1,-5.8415504E0,2.6757255E0,-4.1615996E0,-9.726763E0,1.0227286E0,1.5036267E1,1.746106E1,-1.0479993E1,-5.297033E0,-3.1481462E1,3.5735812E0,-1.7210888E1,1.4728825E0,-4.1373535E1,9.85034E0,1.9527859E1,2.4524294E1,1.0162095E1,-5.7866936E0,-4.4533057E0,-2.2162077E0,-4.699354E-1,-2.4858959E0,-4.9413314E0,1.9259703E-1,1.5567911E0,-9.148022E-1,-2.4358952E0,-4.1393217E-2,8.9803946E-1,-4.5154586E0,-9.343628E-1,9.065494E-1,1.7394546E0,1.3425426E0,2.5804641E0,1.8361237E0,5.562555E0,-8.426426E-1,1.4715132E0,4.5612127E-1,-1.3503855E0],"categories":[],"categories_nodes":[],"categories_segments":[],"categories_sizes":[],"default_left":[0,0,0,0,0,0,0,0,0,0,0,0,0,0,0,0,0,0,0,0,0,0,0,0,0,0,0,0,0,0,0,0,0,0,0,0,0,0,0,0,0,0,0,0,0,0,0,0,0],"id":23,"left_children":[1,3,5,7,9,11,13,15,17,-1,-1,19,21,23,25,27,29,31,33,35,37,39,41,43,45,47,-1,-1,-1,-1,-1,-1,-1,-1,-1,-1,-1,-1,-1,-1,-1,-1,-1,-1,-1,-1,-1,-1,-1],"loss_changes":[7.24919E4,5.915586E4,3.062914E4,2.439395E4,7.449422E3,1.880662E4,1.828354E4,1.7424586E4,8.257091E3,0E0,0E0,1.2714189E4,2.4164668E3,1.3618891E4,3.8976533E3,1.2344512E4,1.8592305E3,8.66529E3,9.298418E2,9.31031E3,4.258379E2,1.620459E2,1.9134766E3,2.5046977E4,1.14649795E4,1.9781494E3,0E0,0E0,0E0,0E0,0E0,0E0,0E0,0E0,0E0,0E0,0E0,0E0,0E0,0E0,0E0,0E0,0E0,0E0,0E0,0E0,0E0,0E0,0E0],"parents":[2147483647,0,0,1,1,2,2,3,3,4,4,5,5,6,6,7,7,8,8,11,11,12,12,13,13,14,14,15,15,16,16,17,17,18,18,19,19,20,20,21,21,22,22,23,23,24,24,25,25],"right_children":[2,4,6,8,10,12,14,16,18,-1,-1,20,22,24,26,28,30,32,34,36,38,40,42,44,46,48,-1,-1,-1,-1,-1,-1,-1,-1,-1,-1,-1,-1,-1,-1,-1,-1,-1,-1,-1,-1,-1,-1,-1],"split_conditions":[1.2857143E0,3E0,4E0,1E0,7E0,5E0,1E0,4E0,1E0,-4.1615996E0,-9.726763E0,2E1,9E0,1.6E1,5E0,2.3605146E4,1E1,1.2E1,2E0,4.6E1,3E0,1.2054637E23,4.1E1,1.2E1,1.2E1,1.4E1,-4.4533057E0,-2.2162077E0,-4.699354E-1,-2.4858959E0,-4.9413314E0,1.9259703E-1,1.5567911E0,-9.148022E-1,-2.4358952E0,-4.1393217E-2,8.9803946E-1,-4.5154586E0,-9.343628E-1,9.065494E-1,1.7394546E0,1.3425426E0,2.5804641E0,1.8361237E0,5.562555E0,-8.426426E-1,1.4715132E0,4.5612127E-1,-1.3503855E0],"split_indices":[12,10,8,8,10,12,10,7,10,0,0,7,12,7,10,4,7,8,10,11,12,4,11,8,8,7,0,0,0,0,0,0,0,0,0,0,0,0,0,0,0,0,0,0,0,0,0,0,0],"split_type":[0,0,0,0,0,0,0,0,0,0,0,0,0,0,0,0,0,0,0,0,0,0,0,0,0,0,0,0,0,0,0,0,0,0,0,0,0,0,0,0,0,0,0,0,0,0,0,0,0],"sum_hessian":[2.797E3,1.731E3,1.066E3,1.717E3,1.4E1,7.73E2,2.93E2,1.259E3,4.58E2,9E0,5E0,6.62E2,1.11E2,2.68E2,2.5E1,1.234E3,2.5E1,4.39E2,1.9E1,6.56E2,6E0,5.3E1,5.8E1,1.35E2,1.33E2,2.3E1,2E0,4.1E1,1.193E3,2E1,5E0,3.87E2,5.2E1,1E1,9E0,5.25E2,1.31E2,5E0,1E0,5E1,3E0,3.1E1,2.7E1,1.14E2,2.1E1,2.6E1,1.07E2,1E1,1.3E1],"tree_param":{"num_deleted":"0","num_feature":"13","num_nodes":"49","size_leaf_vector":"1"}},{"base_weights":[-1.1856487E-1,-2.128969E0,1.0660212E1,-1.5109423E0,-4.087347E1,7.5782986E0,2.177265E1,-3.7402337E0,6.264368E0,-2.8671822E1,-8.907027E0,4.6875386E0,1.5166649E1,3.0566582E1,9.94777E0,-3.160143E0,-2.2867378E1,3.933601E0,1.2914227E1,-3.2671238E1,-1.30896E1,5.4746165E0,-2.000267E1,1.1310325E1,1.9969849E1,2.3806051E1,5.0057014E1,-4.356045E-1,1.7025888E1,-1.7112068E0,-2.63023E-1,-1.8751484E0,-5.198331E0,5.4308194E-1,-2.1017354E0,2.872836E0,2.8509822E-1,-2.485594E0,-3.8415203E0,-1.4415284E-1,-1.4547677E0,3.1384796E-1,1.1387974E0,-2.6937912E0,-1.0453943E0,1.287494E0,3.88142E-1,1.0009084E0,2.5944374E0,2.6732173E0,1.7939758E-1,5.311977E0,6.652008E-1,4.4312134E-1,-1.857727E0,1.2467012E0,2.6967714E0],"categories":[],"categories_nodes":[],"categories_segments":[],"categories_sizes":[],"default_left":[0,0,0,0,0,0,0,0,0,0,0,0,0,0,0,0,0,0,0,0,0,0,0,0,0,0,0,0,0,0,0,0,0,0,0,0,0,0,0,0,0,0,0,0,0,0,0,0,0,0,0,0,0,0,0,0,0],"id":24,"left_children":[1,3,5,7,9,11,13,15,17,19,-1,21,23,25,27,29,31,33,35,37,39,41,43,45,47,49,51,53,55,-1,-1,-1,-1,-1,-1,-1,-1,-1,-1,-1,-1,-1,-1,-1,-1,-1,-1,-1,-1,-1,-1,-1,-1,-1,-1,-1,-1],"loss_changes":[6.0654504E4,5.6424805E4,1.490393E4,4.0288992E4,1.9205172E4,7.518797E3,9.574715E3,1.9966168E4,7.977824E3,1.5042617E3,0E0,5.0066533E3,1.533791E3,5.9236836E3,3.0941963E3,1.2922855E4,5.3766523E3,1.4496593E4,2.124306E4,1.225332E2,1.14899414E2,3.3487905E3,2.4817456E2,5.89313E2,2.1802666E3,2.6572617E3,1.3748516E3,1.6715792E3,7.9688135E2,0E0,0E0,0E0,0E0,0E0,0E0,0E0,0E0,0E0,0E0,0E0,0E0,0E0,0E0,0E0,0E0,0E0,0E0,0E0,0E0,0E0,0E0,0E0,0E0,0E0,0E0,0E0,0E0],"parents":[2147483647,0,0,1,1,2,2,3,3,4,4,5,5,6,6,7,7,8,8,9,9,11,11,12,12,13,13,14,14,15,15,16,16,17,17,18,18,19,19,20,20,21,21,22,22,23,23,24,24,25,25,26,26,27,27,28,28],"right_children":[2,4,6,8,10,12,14,16,18,20,-1,22,24,26,28,30,32,34,36,38,40,42,44,46,48,50,52,54,56,-1,-1,-1,-1,-1,-1,-1,-1,-1,-1,-1,-1,-1,-1,-1,-1,-1,-1,-1,-1,-1,-1,-1,-1,-1,-1,-1,-1],"split_conditions":[2.142857E0,2E0,7E0,2E0,7E0,5.2972975E0,2.1E1,5E0,1.2E1,8.5E1,-8.907027E0,5.4E1,3.6E1,1.6E1,8.8E1,4.216553E5,5.9E1,1.9E1,2.8E1,5E0,4.2E1,2E0,3E0,1E0,1E0,1E0,1E0,1E0,7.2E1,-1.7112068E0,-2.63023E-1,-1.8751484E0,-5.198331E0,5.4308194E-1,-2.1017354E0,2.872836E0,2.8509822E-1,-2.485594E0,-3.8415203E0,-1.4415284E-1,-1.4547677E0,3.1384796E-1,1.1387974E0,-2.6937912E0,-1.0453943E0,1.287494E0,3.88142E-1,1.0009084E0,2.5944374E0,2.6732173E0,1.7939758E-1,5.311977E0,6.652008E-1,4.4312134E-1,-1.857727E0,1.2467012E0,2.6967714E0],"split_indices":[12,10,8,8,10,12,7,7,8,11,0,6,0,8,11,5,0,7,7,6,0,8,12,7,9,10,10,10,9,0,0,0,0,0,0,0,0,0,0,0,0,0,0,0,0,0,0,0,0,0,0,0,0,0,0,0,0],"split_type":[0,0,0,0,0,0,0,0,0,0,0,0,0,0,0,0,0,0,0,0,0,0,0,0,0,0,0,0,0,0,0,0,0,0,0,0,0,0,0,0,0,0,0,0,0,0,0,0,0,0,0,0,0,0,0,0,0],"sum_hessian":[2.797E3,2.358E3,4.39E2,2.322E3,3.6E1,3.45E2,9.4E1,1.805E3,5.17E2,3E1,6E0,2.51E2,9.4E1,5.3E1,4.1E1,1.753E3,5.2E1,3.84E2,1.33E2,2.3E1,7E0,2.44E2,7E0,5.4E1,4E1,4.1E1,1.2E1,1.7E1,2.4E1,6.3E1,1.69E3,4.7E1,5E0,3.63E2,2.1E1,5.1E1,8.2E1,1.2E1,1.1E1,1E0,6E0,1.76E2,6.8E1,3E0,4E0,4.4E1,1E1,1.6E1,2.4E1,3.6E1,5E0,1.1E1,1E0,1.4E1,3E0,1.8E1,6E0],"tree_param":{"num_deleted":"0","num_feature":"13","num_nodes":"57","size_leaf_vector":"1"}},{"base_weights":[-1.1027553E-1,-3.4389148E0,5.400717E0,-3.0634646E0,-6.827318E1,2.7060084E0,1.3373364E1,-4.9611073E0,1.9993745E0,-4.1987906E0,-8.616087E0,3.1909244E0,-2.2528387E1,1.4820242E1,-1.5925119E1,-3.3033245E0,-1.187085E1,2.9442391E0,-1.6656199E1,2.1239834E0,1.4252739E1,-1.8006592E0,-2.5578756E1,1.7401793E1,4.4572635E0,-8.426891E0,-3.8110254E0,-1.6284497E0,-2.5180584E-1,-1.0466365E0,-3.2614896E0,1.5809564E-1,1.2363813E0,-1.0691522E0,-2.876238E0,2.399048E-1,-3.0458436E0,3.5741684E0,6.3889414E-1,-4.219269E-1,1.51828E-1,-3.1436076E0,-1.6067332E0,1.3613251E0,2.9686878E0,-2.1283205E0,8.934297E-1,-1.053346E0,6.319397E-1],"categories":[],"categories_nodes":[],"categories_segments":[],"categories_sizes":[],"default_left":[0,0,0,0,0,0,0,0,0,0,0,0,0,0,0,0,0,0,0,0,0,0,0,0,0,0,0,0,0,0,0,0,0,0,0,0,0,0,0,0,0,0,0,0,0,0,0,0,0],"id":25,"left_children":[1,3,5,7,9,11,13,15,17,-1,-1,19,21,23,25,27,29,31,33,35,37,39,41,43,45,47,-1,-1,-1,-1,-1,-1,-1,-1,-1,-1,-1,-1,-1,-1,-1,-1,-1,-1,-1,-1,-1,-1,-1],"loss_changes":[5.134538E4,4.2267703E4,2.2607902E4,1.6688469E4,1.0841133E3,9.726535E3,1.1512105E4,1.4428262E4,8.404233E3,0E0,0E0,9.116515E3,9.023501E2,6.717582E3,1.8413887E3,1.0356541E4,6.767508E3,5.784829E3,1.3533032E3,6.4183623E3,1.1262608E4,3.0487686E1,2.1915527E2,9.044E3,6.182678E3,4.0826978E2,0E0,0E0,0E0,0E0,0E0,0E0,0E0,0E0,0E0,0E0,0E0,0E0,0E0,0E0,0E0,0E0,0E0,0E0,0E0,0E0,0E0,0E0,0E0],"parents":[2147483647,0,0,1,1,2,2,3,3,4,4,5,5,6,6,7,7,8,8,11,11,12,12,13,13,14,14,15,15,16,16,17,17,18,18,19,19,20,20,21,21,22,22,23,23,24,24,25,25],"right_children":[2,4,6,8,10,12,14,16,18,-1,-1,20,22,24,26,28,30,32,34,36,38,40,42,44,46,48,-1,-1,-1,-1,-1,-1,-1,-1,-1,-1,-1,-1,-1,-1,-1,-1,-1,-1,-1,-1,-1,-1,-1],"split_conditions":[1.3055556E0,4E0,7.1E1,1E0,2.5E1,1E0,2E0,1E0,1E0,-4.1987906E0,-8.616087E0,7E0,4E0,3.3E1,5E0,4.216553E5,7E0,1.2E1,2.3E1,1.6E1,1.1E1,1.1E1,3.9E1,1.1E1,1.3E1,2.2E1,-3.8110254E0,-1.6284497E0,-2.5180584E-1,-1.0466365E0,-3.2614896E0,1.5809564E-1,1.2363813E0,-1.0691522E0,-2.876238E0,2.399048E-1,-3.0458436E0,3.5741684E0,6.3889414E-1,-4.219269E-1,1.51828E-1,-3.1436076E0,-1.6067332E0,1.3613251E0,2.9686878E0,-2.1283205E0,8.934297E-1,-1.053346E0,6.319397E-1],"split_indices":[12,10,11,8,0,10,10,7,10,0,0,8,6,7,10,5,6,8,7,7,7,0,11,8,8,8,0,0,0,0,0,0,0,0,0,0,0,0,0,0,0,0,0,0,0,0,0,0,0],"split_type":[0,0,0,0,0,0,0,0,0,0,0,0,0,0,0,0,0,0,0,0,0,0,0,0,0,0,0,0,0,0,0,0,0,0,0,0,0,0,0,0,0,0,0,0,0,0,0,0,0],"sum_hessian":[2.797E3,1.744E3,1.053E3,1.735E3,9E0,7.88E2,2.65E2,1.262E3,4.73E2,5E0,4E0,7.74E2,1.4E1,2.53E2,1.2E1,1.019E3,2.43E2,4.51E2,2.2E1,7.07E2,6.7E1,2E0,1.2E1,2.02E2,5.1E1,1E1,2E0,5.7E1,9.62E2,2.29E2,1.4E1,3.95E2,5.6E1,1.6E1,6E0,7.02E2,5E0,1.7E1,5E1,1E0,1E0,6E0,6E0,1.56E2,4.6E1,7E0,4.4E1,9E0,1E0],"tree_param":{"num_deleted":"0","num_feature":"13","num_nodes":"49","size_leaf_vector":"1"}},{"base_weights":[-1.0864534E-1,-2.540423E0,6.1637383E0,-2.1135566E0,-2.6652868E1,7.305903E0,-2.8713243E1,-3.4431386E0,2.1264908E0,-2.0133047E1,-4.9856E0,3.5146139E0,1.2512364E1,-1.7321316E1,-7.081669E0,-1.6738512E1,-3.0606682E0,1.6926354E0,2.7186989E1,-2.7892653E1,-9.826852E0,4.7701902E0,-8.497043E0,1.7188892E1,5.7570634E0,-8.678502E0,-2.788079E1,-2.325202E0,-1.3976415E0,-2.653286E-1,-1.3894643E0,4.4316135E-2,7.3843664E-1,1.6550467E0,3.9397705E0,-3.1819475E0,-1.2889746E0,-1.2455701E0,-1.408081E-2,2.4432348E-1,2.3978398E0,-3.0673313E0,-2.3769405E-1,1.4962195E0,4.8600283E0,-7.693364E-1,9.61877E-1,-1.1733932E0,1.1296997E-1,-3.4003205E0,-1.1726974E0],"categories":[],"categories_nodes":[],"categories_segments":[],"categories_sizes":[],"default_left":[0,0,0,0,0,0,0,0,0,0,0,0,0,0,0,0,0,0,0,0,0,0,0,0,0,0,0,0,0,0,0,0,0,0,0,0,0,0,0,0,0,0,0,0,0,0,0,0,0,0,0],"id":26,"left_children":[1,3,5,7,9,11,13,15,17,19,-1,21,23,25,-1,27,29,31,33,35,37,39,41,43,45,47,49,-1,-1,-1,-1,-1,-1,-1,-1,-1,-1,-1,-1,-1,-1,-1,-1,-1,-1,-1,-1,-1,-1,-1,-1],"loss_changes":[4.2693668E4,2.0704227E4,3.1360943E4,1.1186466E4,4.2910547E3,1.491834E4,1.0764346E4,7.627246E3,5.1076104E3,2.0450918E3,0E0,6.676416E3,9.9786875E3,1.6745718E3,0E0,4.3064062E2,6.446674E3,3.317878E3,3.8698584E2,5.324756E2,3.5472998E2,1.7775375E4,5.627375E3,1.2422238E4,6.930293E3,4.028435E2,4.9134814E2,0E0,0E0,0E0,0E0,0E0,0E0,0E0,0E0,0E0,0E0,0E0,0E0,0E0,0E0,0E0,0E0,0E0,0E0,0E0,0E0,0E0,0E0,0E0,0E0],"parents":[2147483647,0,0,1,1,2,2,3,3,4,4,5,5,6,6,7,7,8,8,9,9,11,11,12,12,13,13,15,15,16,16,17,17,18,18,19,19,20,20,21,21,22,22,23,23,24,24,25,25,26,26],"right_children":[2,4,6,8,10,12,14,16,18,20,-1,22,24,26,-1,28,30,32,34,36,38,40,42,44,46,48,50,-1,-1,-1,-1,-1,-1,-1,-1,-1,-1,-1,-1,-1,-1,-1,-1,-1,-1,-1,-1,-1,-1,-1,-1],"split_conditions":[3E0,1E0,2E0,2E0,4E0,6.3E1,7E0,2.3605146E4,5E0,5.3E1,-4.9856E0,2.4E1,1.6E1,1.7E1,-7.081669E0,3.308E3,6E0,3.6190476E0,1.5E1,1E0,2.1653798E22,9E0,1.1E1,1.4E1,1.2E1,9E0,8.3E1,-2.325202E0,-1.3976415E0,-2.653286E-1,-1.3894643E0,4.4316135E-2,7.3843664E-1,1.6550467E0,3.9397705E0,-3.1819475E0,-1.2889746E0,-1.2455701E0,-1.408081E-2,2.4432348E-1,2.3978398E0,-3.0673313E0,-2.3769405E-1,1.4962195E0,4.8600283E0,-7.693364E-1,9.61877E-1,-1.1733932E0,1.1296997E-1,-3.4003205E0,-1.1726974E0],"split_indices":[9,10,10,12,10,11,10,4,8,11,0,7,7,7,0,1,7,12,8,8,4,8,8,8,8,8,11,0,0,0,0,0,0,0,0,0,0,0,0,0,0,0,0,0,0,0,0,0,0,0,0],"split_type":[0,0,0,0,0,0,0,0,0,0,0,0,0,0,0,0,0,0,0,0,0,0,0,0,0,0,0,0,0,0,0,0,0,0,0,0,0,0,0,0,0,0,0,0,0,0,0,0,0,0,0],"sum_hessian":[2.797E3,2.016E3,7.81E2,1.982E3,3.4E1,7.57E2,2.4E1,1.509E3,4.73E2,2.8E1,6E0,4.39E2,3.18E2,2E1,4E0,4.1E1,1.468E3,4.66E2,7E0,1.5E1,1.3E1,3.98E2,4.1E1,1.87E2,1.31E2,1.2E1,8E0,1E1,3.1E1,1.416E3,5.2E1,3.83E2,8.3E1,5E0,2E0,1.1E1,4E0,1E1,3E0,3.56E2,4.2E1,8E0,3.3E1,1.76E2,1.1E1,2.9E1,1.02E2,9E0,3E0,5E0,3E0],"tree_param":{"num_deleted":"0","num_feature":"13","num_nodes":"51","size_leaf_vector":"1"}},{"base_weights":[-1.0369765E-1,-2.5121176E0,5.3083825E0,-1.7602357E0,-2.6004154E1,2.1866672E0,1.1858365E1,-4.0464067E0,3.200601E0,-1.9832806E1,-6.989682E0,3.0190084E0,-1.5824782E1,1.0325539E1,3.478438E1,-3.6554732E0,-2.4450686E1,1.3852378E0,9.119951E0,-2.5904865E1,-1.3704999E1,-2.2538632E-1,7.2523355E0,-1.1758176E1,-3.5251572E0,1.1323122E1,-3.8263211E0,3.691625E1,3.3724975E-2,-9.045604E-1,-2.1945679E-1,-1.7917935E0,-3.7756233E0,3.3688602E-1,-1.0786095E0,2.7634757E0,3.7706038E-1,-2.0472472E0,-3.389134E0,-1.0697101E0,-2.0263593E0,-7.5346775E-2,1.049209E0,6.1758393E-1,2.3203351E0,-1.3487672E0,4.2676798E-1,7.935402E-1,1.6774714E0,5.262805E-1,-1.3500203E0,2.240156E0,4.863075E0],"categories":[],"categories_nodes":[],"categories_segments":[],"categories_sizes":[],"default_left":[0,0,0,0,0,0,0,0,0,0,0,0,0,0,0,0,0,0,0,0,0,0,0,0,0,0,0,0,0,0,0,0,0,0,0,0,0,0,0,0,0,0,0,0,0,0,0,0,0,0,0,0,0],"id":27,"left_children":[1,3,5,7,9,11,13,15,17,19,-1,21,23,25,27,29,31,33,35,37,39,41,43,45,-1,47,49,51,-1,-1,-1,-1,-1,-1,-1,-1,-1,-1,-1,-1,-1,-1,-1,-1,-1,-1,-1,-1,-1,-1,-1,-1,-1],"loss_changes":[3.6484043E4,3.4167918E4,1.759954E4,2.1311953E4,1.4866367E4,8.817901E3,9.410199E3,1.016868E4,6.359609E3,1.6542266E3,0E0,7.693002E3,1.6395352E3,3.7421543E3,1.2359746E3,9.925605E3,1.4096104E3,1.1021553E4,1.3662655E4,4.3418945E2,3.553379E2,1.8076902E3,4.0293027E3,6.9504346E2,0E0,4.39166E3,1.6537374E3,1.6311113E3,0E0,0E0,0E0,0E0,0E0,0E0,0E0,0E0,0E0,0E0,0E0,0E0,0E0,0E0,0E0,0E0,0E0,0E0,0E0,0E0,0E0,0E0,0E0,0E0,0E0],"parents":[2147483647,0,0,1,1,2,2,3,3,4,4,5,5,6,6,7,7,8,8,9,9,11,11,12,12,13,13,14,14,15,15,16,16,17,17,18,18,19,19,20,20,21,21,22,22,23,23,25,25,26,26,27,27],"right_children":[2,4,6,8,10,12,14,16,18,20,-1,22,24,26,28,30,32,34,36,38,40,42,44,46,-1,48,50,52,-1,-1,-1,-1,-1,-1,-1,-1,-1,-1,-1,-1,-1,-1,-1,-1,-1,-1,-1,-1,-1,-1,-1,-1,-1],"split_conditions":[1.6666666E0,1E0,2E0,1E0,7E0,6E0,6E0,5E0,8E0,5.3E1,-6.989682E0,1.3E1,1.12E2,1E0,1.7397762E23,8.333333E-1,1E1,8E0,1.3E1,5E0,3E0,4.107143E0,1.3E1,1.07E2,-3.5251572E0,8E1,1.4E1,7E0,3.3724975E-2,-9.045604E-1,-2.1945679E-1,-1.7917935E0,-3.7756233E0,3.3688602E-1,-1.0786095E0,2.7634757E0,3.7706038E-1,-2.0472472E0,-3.389134E0,-1.0697101E0,-2.0263593E0,-7.5346775E-2,1.049209E0,6.1758393E-1,2.3203351E0,-1.3487672E0,4.2676798E-1,7.935402E-1,1.6774714E0,5.262805E-1,-1.3500203E0,2.240156E0,4.863075E0],"split_indices":[12,10,8,8,10,7,12,7,8,11,0,11,0,10,3,12,7,7,7,6,10,12,9,11,0,11,7,8,0,0,0,0,0,0,0,0,0,0,0,0,0,0,0,0,0,0,0,0,0,0,0,0,0],"split_type":[0,0,0,0,0,0,0,0,0,0,0,0,0,0,0,0,0,0,0,0,0,0,0,0,0,0,0,0,0,0,0,0,0,0,0,0,0,0,0,0,0,0,0,0,0,0,0,0,0,0,0,0,0],"sum_hessian":[2.797E3,1.936E3,8.61E2,1.877E3,5.9E1,5.84E2,2.77E2,1.285E3,5.92E2,5.3E1,6E0,5.59E2,2.5E1,2.61E2,1.6E1,1.262E3,2.3E1,4.54E2,1.38E2,2.5E1,2.8E1,3.17E2,2.42E2,2.2E1,3E0,2.44E2,1.7E1,1.5E1,1E0,2.68E2,9.94E2,1.7E1,6E0,3.91E2,6.3E1,3E1,1.08E2,1.7E1,8E0,2.1E1,7E0,3.03E2,1.4E1,2.28E2,1.4E1,2E1,2E0,1.52E2,9.2E1,9E0,8E0,8E0,7E0],"tree_param":{"num_deleted":"0","num_feature":"13","num_nodes":"53","size_leaf_vector":"1"}},{"base_weights":[-9.745891E-2,-1.5583911E0,7.44876E0,-1.1443491E0,-2.735473E1,9.575947E0,-1.1175513E1,-2.6781151E0,2.4213722E0,-2.1215212E1,-5.0636215E0,6.529278E0,1.5298863E1,-6.6688104E0,-4.769805E1,-1.292251E1,-2.2470617E0,3.0642834E0,-8.774862E0,-2.5795721E1,-1.4609619E1,8.884141E0,-3.191093E0,1.8954084E1,9.058897E0,-7.7501364E0,1.9373444E0,-5.269565E0,-1.3853836E0,-1.3894955E0,-1.0443115E-1,-5.575318E-1,-1.2217369E-1,2.2758439E-1,2.473312E0,-2.763808E0,-1.9677229E-1,-2.678868E0,-4.9541932E-1,-6.503732E-1,-2.5684495E0,6.908664E-1,3.3145814E0,-1.9337746E0,2.0064087E-1,1.4555235E0,2.835314E0,-2.6995617E-1,1.2482733E0,7.542501E-1,-1.002056E0],"categories":[],"categories_nodes":[],"categories_segments":[],"categories_sizes":[],"default_left":[0,0,0,0,0,0,0,0,0,0,0,0,0,0,0,0,0,0,0,0,0,0,0,0,0,0,0,0,0,0,0,0,0,0,0,0,0,0,0,0,0,0,0,0,0,0,0,0,0,0,0],"id":28,"left_children":[1,3,5,7,9,11,13,15,17,19,-1,21,23,25,27,29,31,33,35,37,39,41,43,45,47,49,-1,-1,-1,-1,-1,-1,-1,-1,-1,-1,-1,-1,-1,-1,-1,-1,-1,-1,-1,-1,-1,-1,-1,-1,-1],"loss_changes":[3.08582E4,2.5015098E4,1.8093275E4,1.2634363E4,4.214416E3,7.0139297E3,7.417934E3,7.1026104E3,5.029627E3,5.6110156E2,0E0,6.162908E3,3.044289E3,1.361034E3,1.1566113E2,7.3629785E2,5.2860435E3,1.1185354E4,4.824989E3,2.1909375E2,1.17953E3,1.0123535E4,4.4866787E3,3.2256738E3,2.2076846E3,1.5338525E3,0E0,0E0,0E0,0E0,0E0,0E0,0E0,0E0,0E0,0E0,0E0,0E0,0E0,0E0,0E0,0E0,0E0,0E0,0E0,0E0,0E0,0E0,0E0,0E0,0E0],"parents":[2147483647,0,0,1,1,2,2,3,3,4,4,5,5,6,6,7,7,8,8,9,9,11,11,12,12,13,13,14,14,15,15,16,16,17,17,18,18,19,19,20,20,21,21,22,22,23,23,24,24,25,25],"right_children":[2,4,6,8,10,12,14,16,18,20,-1,22,24,26,28,30,32,34,36,38,40,42,44,46,48,50,-1,-1,-1,-1,-1,-1,-1,-1,-1,-1,-1,-1,-1,-1,-1,-1,-1,-1,-1,-1,-1,-1,-1,-1,-1],"split_conditions":[6.1E1,1E0,1E0,8E0,4E0,9E1,5E0,1.79886E5,2.4E1,2E0,-5.0636215E0,2.3E1,2.2E1,3.63E2,7.7E1,7.308423E5,9E-1,1.3E1,1.1E1,5.3E1,1E1,1.5E1,1.1E1,7E0,1.4E1,3.3701617E18,1.9373444E0,-5.269565E0,-1.3853836E0,-1.3894955E0,-1.0443115E-1,-5.575318E-1,-1.2217369E-1,2.2758439E-1,2.473312E0,-2.763808E0,-1.9677229E-1,-2.678868E0,-4.9541932E-1,-6.503732E-1,-2.5684495E0,6.908664E-1,3.3145814E0,-1.9337746E0,2.0064087E-1,1.4555235E0,2.835314E0,-2.6995617E-1,1.2482733E0,7.542501E-1,-1.002056E0],"split_indices":[11,10,10,11,10,11,10,1,7,8,0,7,7,0,0,4,12,8,8,11,7,8,8,8,8,2,0,0,0,0,0,0,0,0,0,0,0,0,0,0,0,0,0,0,0,0,0,0,0,0,0],"split_type":[0,0,0,0,0,0,0,0,0,0,0,0,0,0,0,0,0,0,0,0,0,0,0,0,0,0,0,0,0,0,0,0,0,0,0,0,0,0,0,0,0,0,0,0,0,0,0,0,0,0,0],"sum_hessian":[2.797E3,2.344E3,4.53E2,2.308E3,3.6E1,4.07E2,4.6E1,1.614E3,6.94E2,3E1,6E0,2.67E2,1.4E2,4.2E1,4E0,6.4E1,1.55E3,6.57E2,3.7E1,1.6E1,1.4E1,2.15E2,5.2E1,8.7E1,5.3E1,4.1E1,1E0,3E0,1E0,5.9E1,5E0,3.64E2,1.186E3,6.35E2,2.2E1,9E0,2.8E1,1.5E1,1E0,9E0,5E0,2E2,1.5E1,1.2E1,4E1,6.1E1,2.6E1,1.2E1,4.1E1,5E0,3.6E1],"tree_param":{"num_deleted":"0","num_feature":"13","num_nodes":"51","size_leaf_vector":"1"}},{"base_weights":[-9.174851E-2,1.74225E-1,-3.5271873E1,-1.2325441E0,7.572044E0,-2.2659882E1,-6.302521E0,-1.9698863E0,5.4596996E0,8.636843E0,-4.3741717E0,-2.6162373E1,-1.2462001E0,-3.147861E0,1.4820021E0,4.5050077E0,2.1196041E1,5.884839E0,1.3806348E1,-5.929117E0,1.5224915E1,-1.5105487E1,-3.0322669E0,-2.5729737E-1,-1.8926163E0,4.6355054E-1,-1.4177561E-1,2.8532204E-1,9.2914355E-1,2.517492E0,-4.5853678E-2,8.0142796E-1,-2.90467E-1,1.7107443E0,8.1711113E-1,7.0773804E-1,-7.835678E-1,4.4325867E-1,1.8404785E0,-2.4070413E0,-1.1053976E-1],"categories":[],"categories_nodes":[],"categories_segments":[],"categories_sizes":[],"default_left":[0,0,0,0,0,0,0,0,0,0,0,0,0,0,0,0,0,0,0,0,0,0,0,0,0,0,0,0,0,0,0,0,0,0,0,0,0,0,0,0,0],"id":29,"left_children":[1,3,5,7,9,11,-1,13,15,17,19,21,-1,23,25,27,29,31,33,35,37,39,-1,-1,-1,-1,-1,-1,-1,-1,-1,-1,-1,-1,-1,-1,-1,-1,-1,-1,-1],"loss_changes":[2.618698E4,2.8920043E4,5.922377E3,1.1532752E4,5.6855996E3,2.4545312E2,0E0,8.560026E3,3.3899292E3,5.723164E3,1.2178641E3,4.796045E1,0E0,1.4183305E4,4.9079688E3,1.7128447E3,1.1316362E3,5.0393643E3,2.4831582E3,9.2337463E2,2.137384E1,6.009415E2,0E0,0E0,0E0,0E0,0E0,0E0,0E0,0E0,0E0,0E0,0E0,0E0,0E0,0E0,0E0,0E0,0E0,0E0,0E0],"parents":[2147483647,0,0,1,1,2,2,3,3,4,4,5,5,7,7,8,8,9,9,10,10,11,11,13,13,14,14,15,15,16,16,17,17,18,18,19,19,20,20,21,21],"right_children":[2,4,6,8,10,12,-1,14,16,18,20,22,-1,24,26,28,30,32,34,36,38,40,-1,-1,-1,-1,-1,-1,-1,-1,-1,-1,-1,-1,-1,-1,-1,-1,-1,-1,-1],"split_conditions":[3E0,6.1E1,8E0,2.4545455E0,1E0,1.2285714E0,-6.302521E0,1E0,7E0,9E1,5E0,1.1E1,-1.2462001E0,3E0,3E0,6E0,1.25E2,2.3E1,2.2E1,3.3701617E18,1.11E2,2E0,-3.0322669E0,-2.5729737E-1,-1.8926163E0,4.6355054E-1,-1.4177561E-1,2.8532204E-1,9.2914355E-1,2.517492E0,-4.5853678E-2,8.0142796E-1,-2.90467E-1,1.7107443E0,8.1711113E-1,7.0773804E-1,-7.835678E-1,4.4325867E-1,1.8404785E0,-2.4070413E0,-1.1053976E-1],"split_indices":[10,11,10,12,10,12,0,8,8,11,12,0,0,7,7,12,0,7,7,2,0,7,0,0,0,0,0,0,0,0,0,0,0,0,0,0,0,0,0,0,0],"split_type":[0,0,0,0,0,0,0,0,0,0,0,0,0,0,0,0,0,0,0,0,0,0,0,0,0,0,0,0,0,0,0,0,0,0,0,0,0,0,0,0,0],"sum_hessian":[2.797E3,2.777E3,2E1,2.334E3,4.43E2,1.5E1,5E0,2.103E3,2.31E2,4.07E2,3.6E1,1E1,5E0,1.568E3,5.35E2,2.19E2,1.2E1,2.67E2,1.4E2,3.4E1,2E0,4E0,6E0,1.514E3,5.4E1,2.56E2,2.79E2,1.64E2,5.5E1,1E1,2E0,2.15E2,5.2E1,8.7E1,5.3E1,4E0,3E1,1E0,1E0,2E0,2E0],"tree_param":{"num_deleted":"0","num_feature":"13","num_nodes":"41","size_leaf_vector":"1"}},{"base_weights":[-8.470482E-2,-2.0278943E0,4.104092E0,-1.467809E0,-1.9906004E1,1.6284834E0,8.918305E0,-3.1521833E0,2.334951E0,-1.5890149E1,-5.929603E0,2.5393236E0,-1.1979664E1,7.678353E0,2.9181137E1,-7.7769814E0,-1.8865092E0,8.9280105E-1,7.971531E0,-2.1268654E1,-1.0520104E1,1.4916272E0,1.1960519E1,-9.386771E0,-3.102434E0,8.280809E0,-1.1717064E1,3.0976273E1,2.2949219E-2,-8.2353973E-1,4.0153533E-1,-1.5975653E-1,-2.3945618E0,3.1485653E-1,-8.550541E-1,2.3430524E0,2.0578924E-1,-1.6097946E0,-2.9246888E0,-8.107788E-1,-1.5838963E0,4.097672E-2,5.526669E-1,8.571211E-1,2.225127E0,-1.0148976E0,1.872335E-1,6.042942E-1,1.2437176E0,-2.0960694E-2,-2.0881107E0,1.8600382E0,4.1027117E0],"categories":[],"categories_nodes":[],"categories_segments":[],"categories_sizes":[],"default_left":[0,0,0,0,0,0,0,0,0,0,0,0,0,0,0,0,0,0,0,0,0,0,0,0,0,0,0,0,0,0,0,0,0,0,0,0,0,0,0,0,0,0,0,0,0,0,0,0,0,0,0,0,0],"id":30,"left_children":[1,3,5,7,9,11,13,15,17,19,-1,21,23,25,27,29,31,33,35,37,39,41,43,45,-1,47,49,51,-1,-1,-1,-1,-1,-1,-1,-1,-1,-1,-1,-1,-1,-1,-1,-1,-1,-1,-1,-1,-1,-1,-1,-1,-1],"loss_changes":[2.2782994E4,1.9116146E4,1.0556838E4,1.1889137E4,8.232482E3,7.3061953E3,7.338547E3,7.512913E3,4.6262954E3,1.3359229E3,0E0,5.420834E3,1.5358716E3,3.4272207E3,8.76417E2,1.5250664E3,6.405702E3,9.719311E3,1.0556373E4,6.017676E2,2.4367334E2,2.1673145E3,1.7275981E3,3.107815E2,0E0,2.50133E3,9.447168E2,1.2270889E3,0E0,0E0,0E0,0E0,0E0,0E0,0E0,0E0,0E0,0E0,0E0,0E0,0E0,0E0,0E0,0E0,0E0,0E0,0E0,0E0,0E0,0E0,0E0,0E0,0E0],"parents":[2147483647,0,0,1,1,2,2,3,3,4,4,5,5,6,6,7,7,8,8,9,9,11,11,12,12,13,13,14,14,15,15,16,16,17,17,18,18,19,19,20,20,21,21,22,22,23,23,25,25,26,26,27,27],"right_children":[2,4,6,8,10,12,14,16,18,20,-1,22,24,26,28,30,32,34,36,38,40,42,44,46,-1,48,50,52,-1,-1,-1,-1,-1,-1,-1,-1,-1,-1,-1,-1,-1,-1,-1,-1,-1,-1,-1,-1,-1,-1,-1,-1,-1],"split_conditions":[1.5641025E0,1E0,2E0,1E0,8E0,4E0,6E0,9E-1,9E0,5.3E1,-5.929603E0,5E0,1.12E2,2E0,1.7397762E23,7E0,8E0,7E0,1.5E1,5E0,3E0,3.8333333E0,3.6E1,1.07E2,-3.102434E0,1.1E1,1.5E1,7E0,2.2949219E-2,-8.2353973E-1,4.0153533E-1,-1.5975653E-1,-2.3945618E0,3.1485653E-1,-8.550541E-1,2.3430524E0,2.0578924E-1,-1.6097946E0,-2.9246888E0,-8.107788E-1,-1.5838963E0,4.097672E-2,5.526669E-1,8.571211E-1,2.225127E0,-1.0148976E0,1.872335E-1,6.042942E-1,1.2437176E0,-2.0960694E-2,-2.0881107E0,1.8600382E0,4.1027117E0],"split_indices":[12,10,8,8,10,7,12,12,8,11,0,9,0,10,3,9,6,7,7,6,10,12,0,11,0,8,7,8,0,0,0,0,0,0,0,0,0,0,0,0,0,0,0,0,0,0,0,0,0,0,0,0,0],"split_type":[0,0,0,0,0,0,0,0,0,0,0,0,0,0,0,0,0,0,0,0,0,0,0,0,0,0,0,0,0,0,0,0,0,0,0,0,0,0,0,0,0,0,0,0,0,0,0,0,0,0,0,0,0],"sum_hessian":[2.797E3,1.911E3,8.86E2,1.854E3,5.7E1,5.86E2,3E2,1.285E3,5.69E2,5.3E1,4E0,5.5E2,3.6E1,2.84E2,1.6E1,2.75E2,1.01E3,4.54E2,1.15E2,2.5E1,2.8E1,4.96E2,5.4E1,3.3E1,3E0,2.76E2,8E0,1.5E1,1E0,2.65E2,1E1,9.98E2,1.2E1,3.67E2,8.7E1,3.1E1,8.4E1,1.7E1,8E0,2.1E1,7E0,3.92E2,1.04E2,4.2E1,1.2E1,3.1E1,2E0,1.81E2,9.5E1,4E0,4E0,8E0,7E0],"tree_param":{"num_deleted":"0","num_feature":"13","num_nodes":"53","size_leaf_vector":"1"}},{"base_weights":[-7.9232164E-2,-1.258963E0,5.751962E0,-6.2138265E-1,-1.39877405E1,1.1263603E1,7.3704734E-2,-1.252553E0,7.965792E0,-1.197707E1,-3.8377988E0,6.9951725E0,2.575739E1,-1.1503171E1,4.3384385E0,-1.0219967E0,-1.687326E1,5.758702E0,2.0094313E1,-1.07717495E1,-3.941715E0,4.922338E0,1.2242046E1,2.0891685E1,3.701544E1,-9.4487705E0,-4.944159E0,1.1513272E1,4.6514582E-2,-1.3134425E0,-7.481345E-2,-1.9159406E0,-9.410095E-1,4.2926294E-1,1.4097724E0,2.1487799E0,1.07802E0,-1.4770256E0,-6.049019E-1,7.60031E-1,-7.889294E-2,-2.1251526E-1,1.3815688E0,-3.0215862E-1,2.2229793E0,3.8718393E0,6.5870667E-1,-1.221219E0,1.6940168E-1,1.2866099E0,-1.1995652E0,1.900222E-1,-1.4941497E0],"categories":[],"categories_nodes":[],"categories_segments":[],"categories_sizes":[],"default_left":[0,0,0,0,0,0,0,0,0,0,0,0,0,0,0,0,0,0,0,0,0,0,0,0,0,0,0,0,0,0,0,0,0,0,0,0,0,0,0,0,0,0,0,0,0,0,0,0,0,0,0,0,0],"id":31,"left_children":[1,3,5,7,9,11,13,15,17,19,-1,21,23,25,27,29,31,33,35,37,-1,39,41,43,45,47,-1,49,51,-1,-1,-1,-1,-1,-1,-1,-1,-1,-1,-1,-1,-1,-1,-1,-1,-1,-1,-1,-1,-1,-1,-1,-1],"loss_changes":[1.9255357E4,1.8884469E4,1.4739827E4,1.2031472E4,4.983867E3,1.4605732E4,1.1553651E4,7.426959E3,3.9531309E3,3.0151133E3,0E0,1.9626592E3,2.1847188E3,4.4431006E3,5.265211E3,6.750496E3,3.3156445E2,1.5288135E3,6.687598E1,1.8179258E3,0E0,2.070769E3,1.205019E3,1.3471113E3,5.222285E2,1.8990103E3,0E0,2.1897617E3,3.0289978E3,0E0,0E0,0E0,0E0,0E0,0E0,0E0,0E0,0E0,0E0,0E0,0E0,0E0,0E0,0E0,0E0,0E0,0E0,0E0,0E0,0E0,0E0,0E0,0E0],"parents":[2147483647,0,0,1,1,2,2,3,3,4,4,5,5,6,6,7,7,8,8,9,9,11,11,12,12,13,13,14,14,15,15,16,16,17,17,18,18,19,19,21,21,22,22,23,23,24,24,25,25,27,27,28,28],"right_children":[2,4,6,8,10,12,14,16,18,20,-1,22,24,26,28,30,32,34,36,38,-1,40,42,44,46,48,-1,50,52,-1,-1,-1,-1,-1,-1,-1,-1,-1,-1,-1,-1,-1,-1,-1,-1,-1,-1,-1,-1,-1,-1,-1,-1],"split_conditions":[4E0,6E0,1.4E1,5E0,2.4E1,9E0,1.2E1,1E0,3.6E1,5E0,-3.8377988E0,6.9E1,1.6E1,3E0,2.9E1,1.8970105E4,5.3E1,8.6E1,5E0,5E1,-3.941715E0,8E0,8E-1,5.952381E-1,2E0,8.9E1,-4.944159E0,2E0,1E0,-1.3134425E0,-7.481345E-2,-1.9159406E0,-9.410095E-1,4.2926294E-1,1.4097724E0,2.1487799E0,1.07802E0,-1.4770256E0,-6.049019E-1,7.60031E-1,-7.889294E-2,-2.1251526E-1,1.3815688E0,-3.0215862E-1,2.2229793E0,3.8718393E0,6.5870667E-1,-1.221219E0,1.6940168E-1,1.2866099E0,-1.1995652E0,1.900222E-1,-1.4941497E0],"split_indices":[8,7,7,9,7,8,8,10,0,10,0,11,8,10,7,5,11,11,7,11,0,7,12,12,10,11,0,10,10,0,0,0,0,0,0,0,0,0,0,0,0,0,0,0,0,0,0,0,0,0,0,0,0],"split_type":[0,0,0,0,0,0,0,0,0,0,0,0,0,0,0,0,0,0,0,0,0,0,0,0,0,0,0,0,0,0,0,0,0,0,0,0,0,0,0,0,0,0,0,0,0,0,0,0,0,0,0,0,0],"sum_hessian":[2.797E3,2.327E3,4.7E2,2.217E3,1.1E2,2.38E2,2.32E2,2.066E3,1.51E2,1.03E2,7E0,1.85E2,5.3E1,6.2E1,1.7E2,2.037E3,2.9E1,1.29E2,2.2E1,1E2,3E0,1.34E2,5.1E1,3.9E1,1.4E1,6E1,2E0,6.3E1,1.07E2,4.4E1,1.993E3,2.1E1,8E0,1.11E2,1.8E1,1.8E1,4E0,5.3E1,4.7E1,9.1E1,4.3E1,5E0,4.6E1,2E0,3.7E1,1.3E1,1E0,4.8E1,1.2E1,6E1,3E0,9.6E1,1.1E1],"tree_param":{"num_deleted":"0","num_feature":"13","num_nodes":"53","size_leaf_vector":"1"}},{"base_weights":[-7.413863E-2,-1.6922438E0,3.7318885E0,-1.5027425E0,-4.268916E1,1.640159E0,8.377433E0,-2.9597738E0,1.4360858E0,-2.6411664E0,-5.643311E0,2.2740903E0,-1.188177E1,7.1640697E0,2.5228605E1,-1.630309E0,-7.6417613E0,2.0355377E0,-9.138171E0,-2.0593261E-2,5.301616E0,-8.205092E0,-2.2769847E0,1.0302517E1,3.40122E0,2.6858555E1,-4.2529296E-2,-1.0412601E0,-1.0705693E-1,-6.154706E-1,-1.648652E0,1.4190689E-1,1.0412148E0,-5.1438993E-1,-1.4120941E0,-4.3439005E-2,8.284302E-1,4.557273E-1,1.6063703E0,-1.3703479E0,-3.7673575E-1,7.885507E-1,2.4262342E0,-4.7447476E-1,7.322267E-1,1.5980428E0,3.5739129E0],"categories":[],"categories_nodes":[],"categories_segments":[],"categories_sizes":[],"default_left":[0,0,0,0,0,0,0,0,0,0,0,0,0,0,0,0,0,0,0,0,0,0,0,0,0,0,0,0,0,0,0,0,0,0,0,0,0,0,0,0,0,0,0,0,0,0,0],"id":32,"left_children":[1,3,5,7,9,11,13,15,17,-1,-1,19,21,23,25,27,29,31,33,35,37,39,-1,41,43,45,-1,-1,-1,-1,-1,-1,-1,-1,-1,-1,-1,-1,-1,-1,-1,-1,-1,-1,-1,-1,-1],"loss_changes":[1.7237945E4,1.51941E4,8.1001416E3,8.379773E3,5.2296094E2,4.9730483E3,5.1149316E3,8.1292354E3,4.1324556E3,0E0,0E0,3.8349714E3,8.540017E2,2.834669E3,7.2226953E2,5.002967E3,3.6996465E3,3.1610356E3,6.2395215E2,1.0861084E3,1.8333379E3,4.607821E2,0E0,4.262497E3,3.6121035E3,9.745371E2,0E0,0E0,0E0,0E0,0E0,0E0,0E0,0E0,0E0,0E0,0E0,0E0,0E0,0E0,0E0,0E0,0E0,0E0,0E0,0E0,0E0],"parents":[2147483647,0,0,1,1,2,2,3,3,4,4,5,5,6,6,7,7,8,8,11,11,12,12,13,13,14,14,15,15,16,16,17,17,18,18,19,19,20,20,21,21,23,23,24,24,25,25],"right_children":[2,4,6,8,10,12,14,16,18,-1,-1,20,22,24,26,28,30,32,34,36,38,40,-1,42,44,46,-1,-1,-1,-1,-1,-1,-1,-1,-1,-1,-1,-1,-1,-1,-1,-1,-1,-1,-1,-1,-1],"split_conditions":[1.7142857E0,5E0,2E0,1E0,1.1E1,6E0,6E0,1E0,1E0,-2.6411664E0,-5.643311E0,1.3E1,7.7E1,3.1E1,1.7397762E23,1.79886E5,4E0,9.2E1,1.5E1,4.107143E0,1.3E1,5E1,-2.2769847E0,9E0,1.1E1,7E0,-4.2529296E-2,-1.0412601E0,-1.0705693E-1,-6.154706E-1,-1.648652E0,1.4190689E-1,1.0412148E0,-5.1438993E-1,-1.4120941E0,-4.3439005E-2,8.284302E-1,4.557273E-1,1.6063703E0,-1.3703479E0,-3.7673575E-1,7.885507E-1,2.4262342E0,-4.7447476E-1,7.322267E-1,1.5980428E0,3.5739129E0],"split_indices":[12,10,8,8,10,7,12,7,10,0,0,11,0,6,3,1,7,11,6,12,9,11,0,8,8,8,0,0,0,0,0,0,0,0,0,0,0,0,0,0,0,0,0,0,0,0,0],"split_type":[0,0,0,0,0,0,0,0,0,0,0,0,0,0,0,0,0,0,0,0,0,0,0,0,0,0,0,0,0,0,0,0,0,0,0,0,0,0,0,0,0,0,0,0,0,0,0],"sum_hessian":[2.797E3,1.963E3,8.34E2,1.955E3,8E0,5.76E2,2.58E2,1.307E3,6.48E2,5E0,3E0,5.51E2,2.5E1,2.42E2,1.6E1,1.019E3,2.88E2,6.14E2,3.4E1,3.14E2,2.37E2,2E1,5E0,1.31E2,1.11E2,1.5E1,1E0,6E1,9.59E2,2.48E2,4E1,5.73E2,4.1E1,2E1,1.4E1,3E2,1.4E1,2.23E2,1.4E1,8E0,1.2E1,1.13E2,1.8E1,3.6E1,7.5E1,8E0,7E0],"tree_param":{"num_deleted":"0","num_feature":"13","num_nodes":"47","size_leaf_vector":"1"}},{"base_weights":[-6.8517E-2,1.2801479E-1,-2.6063602E1,-1.6903236E0,3.3126807E0,-1.6748856E1,-4.6559E0,-1.0924888E1,-1.448442E0,3.9120238E0,-6.9674153E0,-2.1087215E0,-1.1031551E1,-1.7155774E0,-8.65447E-1,-4.3326926E0,-6.22063E-1,2.7969131E0,1.0329778E1,-1.2213855E1,-1.6616316E0,4.6233064E-1,-1.3566322E1,-6.949205E-1,-2.9335061E-2,-5.641219E-2,-3.9160523E0,3.7475485E-1,-5.200903E-1,1.3056977E0,5.694161E-1,-5.8760214E-1,-1.8131974E0,5.0031465E-1,-4.43884E-1,-1.5497925E0,-5.18101E-1],"categories":[],"categories_nodes":[],"categories_segments":[],"categories_sizes":[],"default_left":[0,0,0,0,0,0,0,0,0,0,0,0,0,0,0,0,0,0,0,0,0,0,0,0,0,0,0,0,0,0,0,0,0,0,0,0,0],"id":33,"left_children":[1,3,5,7,9,11,-1,13,15,17,19,-1,21,-1,-1,23,25,27,29,31,33,-1,35,-1,-1,-1,-1,-1,-1,-1,-1,-1,-1,-1,-1,-1,-1],"loss_changes":[1.4297929E4,1.6092442E4,3.229289E3,3.93554E3,6.250174E3,1.6423486E2,0E0,4.8812793E2,4.1088154E3,6.805573E3,1.5385474E3,0E0,4.198545E2,0E0,0E0,4.0564517E3,2.9745408E3,6.21594E3,1.708209E3,9.4368164E2,5.5898303E2,0E0,4.928186E1,0E0,0E0,0E0,0E0,0E0,0E0,0E0,0E0,0E0,0E0,0E0,0E0,0E0,0E0],"parents":[2147483647,0,0,1,1,2,2,3,3,4,4,5,5,7,7,8,8,9,9,10,10,12,12,15,15,16,16,17,17,18,18,19,19,20,20,22,22],"right_children":[2,4,6,8,10,12,-1,14,16,18,20,-1,22,-1,-1,24,26,28,30,32,34,-1,36,-1,-1,-1,-1,-1,-1,-1,-1,-1,-1,-1,-1,-1,-1],"split_conditions":[3E0,1.3E1,8E0,1.8970105E4,1E0,2E0,-4.6559E0,3.308E3,9E-1,9E1,7.4E1,-2.1087215E0,1.1E1,-1.7155774E0,-8.65447E-1,1E0,3.7E1,2.4E1,2.2E1,6E0,1.1E1,4.6233064E-1,1.02E2,-6.949205E-1,-2.9335061E-2,-5.641219E-2,-3.9160523E0,3.7475485E-1,-5.200903E-1,1.3056977E0,5.694161E-1,-5.8760214E-1,-1.8131974E0,5.0031465E-1,-4.43884E-1,-1.5497925E0,-5.18101E-1],"split_indices":[10,11,10,5,10,9,0,1,12,11,11,0,0,0,0,8,6,7,7,6,7,0,0,0,0,0,0,0,0,0,0,0,0,0,0,0,0],"split_type":[0,0,0,0,0,0,0,0,0,0,0,0,0,0,0,0,0,0,0,0,0,0,0,0,0,0,0,0,0,0,0,0,0,0,0,0,0],"sum_hessian":[2.797E3,2.777E3,2E1,1.768E3,1.009E3,1.5E1,5E0,4.4E1,1.724E3,9.54E2,5.5E1,7E0,8E0,1E1,3.4E1,3.83E2,1.341E3,8.14E2,1.4E2,2.7E1,2.8E1,1E0,7E0,2.32E2,1.51E2,1.34E3,1E0,7.28E2,8.6E1,8.7E1,5.3E1,1.4E1,1.3E1,8E0,2E1,5E0,2E0],"tree_param":{"num_deleted":"0","num_feature":"13","num_nodes":"37","size_leaf_vector":"1"}},{"base_weights":[-6.748301E-2,-9.5203644E-1,5.1463194E0,-3.9605758E-1,-1.3185109E1,1.0950858E1,4.2822027E-1,-1.5219996E0,2.964834E0,-1.0419392E1,-2.8900404E1,6.309744E0,2.183517E1,-9.078015E0,3.4832773E0,-8.516445E0,-1.2414694E0,3.6650774E0,-1.0345443E1,-1.5646993E1,-5.3037786E0,-3.817527E0,-1.8475465E0,5.592016E0,2.2990992E1,2.840802E1,1.5629956E1,-4.0916877E0,-2.097646E1,9.536942E0,-1.3633184E-1,-1.5154964E0,-6.913197E-1,-4.2284027E-1,-3.8443442E-2,2.0623887E-1,7.971905E-1,-1.3372636E0,-2.1325007E-1,-1.6618998E0,3.1767377E-1,-6.4411706E-1,3.5419312E-1,8.867182E-1,3.057975E-1,6.4893496E-1,2.5494065E0,3.0754156E0,9.5163986E-2,-2.305705E-2,1.6771086E0,-6.267614E-1,4.099569E-1,-2.8782086E0,-6.8289274E-1,1.0734949E0,-1.1116914E0,-7.135316E-1,2.7741072E-1],"categories":[],"categories_nodes":[],"categories_segments":[],"categories_sizes":[],"default_left":[0,0,0,0,0,0,0,0,0,0,0,0,0,0,0,0,0,0,0,0,0,0,0,0,0,0,0,0,0,0,0,0,0,0,0,0,0,0,0,0,0,0,0,0,0,0,0,0,0,0,0,0,0,0,0,0,0,0,0],"id":34,"left_children":[1,3,5,7,9,11,13,15,17,19,21,23,25,27,29,31,33,35,37,39,41,-1,-1,43,45,47,49,51,53,55,57,-1,-1,-1,-1,-1,-1,-1,-1,-1,-1,-1,-1,-1,-1,-1,-1,-1,-1,-1,-1,-1,-1,-1,-1,-1,-1,-1,-1],"loss_changes":[1.2908958E4,1.6270359E4,1.1114185E4,8.670261E3,4.2191387E3,9.056016E3,6.5660923E3,3.3564827E3,5.397167E3,2.3238271E3,7.4504395E2,1.4158989E3,1.7584258E3,3.1772954E3,3.7482349E3,5.976821E2,4.2247803E3,3.7592285E3,6.9248535E2,8.5785156E2,4.9568298E2,0E0,0E0,1.01031006E3,4.1084473E1,1.5811426E3,5.468345E2,7.386371E2,1.570334E3,1.7029224E3,2.2197668E3,0E0,0E0,0E0,0E0,0E0,0E0,0E0,0E0,0E0,0E0,0E0,0E0,0E0,0E0,0E0,0E0,0E0,0E0,0E0,0E0,0E0,0E0,0E0,0E0,0E0,0E0,0E0,0E0],"parents":[2147483647,0,0,1,1,2,2,3,3,4,4,5,5,6,6,7,7,8,8,9,9,10,10,11,11,12,12,13,13,14,14,15,15,16,16,17,17,18,18,19,19,20,20,23,23,24,24,25,25,26,26,27,27,28,28,29,29,30,30],"right_children":[2,4,6,8,10,12,14,16,18,20,22,24,26,28,30,32,34,36,38,40,42,-1,-1,44,46,48,50,52,54,56,58,-1,-1,-1,-1,-1,-1,-1,-1,-1,-1,-1,-1,-1,-1,-1,-1,-1,-1,-1,-1,-1,-1,-1,-1,-1,-1,-1,-1],"split_conditions":[5E0,7E0,1.4E1,1.3E1,2E1,9E0,1.2E1,1.79886E5,1E0,1.4E0,3.070968E21,6E0,9E0,2.5E1,2.9E1,9.965308E3,9E-1,5E0,2E0,1.26E2,1.2E1,-3.817527E0,-1.8475465E0,7E0,8.693219E19,1E0,3.3E1,8.9E1,1.5076923E0,2E0,6.6E1,-1.5154964E0,-6.913197E-1,-4.2284027E-1,-3.8443442E-2,2.0623887E-1,7.971905E-1,-1.3372636E0,-2.1325007E-1,-1.6618998E0,3.1767377E-1,-6.4411706E-1,3.5419312E-1,8.867182E-1,3.057975E-1,6.4893496E-1,2.5494065E0,3.0754156E0,9.5163986E-2,-2.305705E-2,1.6771086E0,-6.267614E-1,4.099569E-1,-2.8782086E0,-6.8289274E-1,1.0734949E0,-1.1116914E0,-7.135316E-1,2.7741072E-1],"split_indices":[8,7,7,11,7,8,8,1,10,12,1,12,7,7,7,4,12,9,9,11,9,0,0,7,3,10,0,11,12,10,11,0,0,0,0,0,0,0,0,0,0,0,0,0,0,0,0,0,0,0,0,0,0,0,0,0,0,0,0],"split_type":[0,0,0,0,0,0,0,0,0,0,0,0,0,0,0,0,0,0,0,0,0,0,0,0,0,0,0,0,0,0,0,0,0,0,0,0,0,0,0,0,0,0,0,0,0,0,0,0,0,0,0,0,0,0,0,0,0,0,0],"sum_hessian":[2.797E3,2.392E3,4.05E2,2.289E3,1.03E2,1.81E2,2.24E2,1.715E3,5.74E2,8.9E1,1.4E1,1.28E2,5.3E1,5.4E1,1.7E2,6.5E1,1.65E3,5.46E2,2.8E1,4.3E1,4.6E1,6E0,8E0,1.24E2,4E0,2.4E1,2.9E1,3.9E1,1.5E1,6.3E1,1.07E2,1.1E1,5.4E1,3.67E2,1.283E3,3.99E2,1.47E2,2E1,8E0,4.1E1,2E0,4.1E1,5E0,5.3E1,7.1E1,1E0,3E0,2.2E1,2E0,2E0,2.7E1,3.1E1,8E0,9E0,6E0,6E1,3E0,3.1E1,7.6E1],"tree_param":{"num_deleted":"0","num_feature":"13","num_nodes":"59","size_leaf_vector":"1"}},{"base_weights":[-6.2710986E-2,5.0294697E-2,-3.5087505E1,-7.4865097E-1,5.640481E0,-2.1034398E0,-4.739529E0,-4.2119265E-1,-1.3967498E1,1.2793289E1,1.2835486E0,-7.281962E-1,8.911603E0,-9.61571E0,-2.5061945E1,9.746817E0,2.6807148E1,-5.4209657E0,3.8054814E0,-3.8691932E-1,1.0258084E-2,6.466996E-1,1.6429392E0,-1.6689303E0,-5.7583904E-1,-3.4903126E0,-1.5666926E0,1.195665E0,3.986704E-1,3.0892513E0,5.9213257E-1,-1.3572685E-1,-1.4827522E0,9.411627E-1,7.501966E-2],"categories":[],"categories_nodes":[],"categories_segments":[],"categories_sizes":[],"default_left":[0,0,0,0,0,0,0,0,0,0,0,0,0,0,0,0,0,0,0,0,0,0,0,0,0,0,0,0,0,0,0,0,0,0,0],"id":35,"left_children":[1,3,5,7,9,-1,-1,11,13,15,17,19,21,23,25,27,29,31,33,-1,-1,-1,-1,-1,-1,-1,-1,-1,-1,-1,-1,-1,-1,-1,-1],"loss_changes":[1.1076251E4,1.2465073E4,5.5973145E2,1.056461E4,1.0859922E4,0E0,0E0,6.8371294E3,2.6075713E3,5.374168E3,3.7066462E3,6.025659E3,1.2904824E3,1.1044409E3,9.325049E2,1.3525098E3,1.7795781E3,2.2733987E3,2.71635E3,0E0,0E0,0E0,0E0,0E0,0E0,0E0,0E0,0E0,0E0,0E0,0E0,0E0,0E0,0E0,0E0],"parents":[2147483647,0,0,1,1,2,2,3,3,4,4,7,7,8,8,9,9,10,10,11,11,12,12,13,13,14,14,15,15,16,16,17,17,18,18],"right_children":[2,4,6,8,10,-1,-1,12,14,16,18,20,22,24,26,28,30,32,34,-1,-1,-1,-1,-1,-1,-1,-1,-1,-1,-1,-1,-1,-1,-1,-1],"split_conditions":[5E0,6E0,1.1E1,1E1,1.4E1,-2.1034398E0,-4.739529E0,1E1,2E1,1.4E1,1.3E1,1E0,1.9E1,3.3E1,3.070968E21,1.1E1,1E0,2.5E1,2.9E1,-3.8691932E-1,1.0258084E-2,6.466996E-1,1.6429392E0,-1.6689303E0,-5.7583904E-1,-3.4903126E0,-1.5666926E0,1.195665E0,3.986704E-1,3.0892513E0,5.9213257E-1,-1.3572685E-1,-1.4827522E0,9.411627E-1,7.501966E-2],"split_indices":[10,8,10,7,7,0,0,9,7,8,8,12,9,0,1,7,10,7,7,0,0,0,0,0,0,0,0,0,0,0,0,0,0,0,0],"split_type":[0,0,0,0,0,0,0,0,0,0,0,0,0,0,0,0,0,0,0,0,0,0,0,0,0,0,0,0,0,0,0,0,0,0,0],"sum_hessian":[2.797E3,2.789E3,8E0,2.441E3,3.48E2,5E0,3E0,2.383E3,5.8E1,1.31E2,2.17E2,2.308E3,7.5E1,4.3E1,1.5E1,1.09E2,2.2E1,5.9E1,1.58E2,4.82E2,1.826E3,5.8E1,1.7E1,1.4E1,2.9E1,6E0,9E0,7.8E1,3.1E1,1.8E1,4E0,4.2E1,1.7E1,5.5E1,1.03E2],"tree_param":{"num_deleted":"0","num_feature":"13","num_nodes":"35","size_leaf_vector":"1"}},{"base_weights":[-5.914171E-2,2.7238682E-1,-1.09070015E1,-4.4042915E-1,6.4754586E0,-8.656082E0,-3.8351116E1,-1.5263972E-1,-1.0776733E1,1.8640442E1,3.282434E0,-1.4831813E1,-4.698368E0,-1.7225096E0,-4.4607854E0,-1.2083954E0,2.9465976E0,-7.4083323E0,-2.1735409E1,1.4639716E1,3.1362976E1,6.9843144E0,1.0411891E-1,-1.8185593E0,-8.285678E0,-5.3053155E0,1.221756E0,-9.4527595E-2,-7.987339E-1,-1.9860876E-1,3.966703E-1,-1.2648008E0,-2.4654673E-1,-3.1180625E0,-1.3894739E0,1.169171E0,2.1223755E0,3.304655E0,5.580048E-1,2.5599223E-1,1.3888735E0,-1.0815696E0,2.2442381E-1,-2.9712152E-1,-1.8171799E0,3.6292267E-1,-6.4286166E-1],"categories":[],"categories_nodes":[],"categories_segments":[],"categories_sizes":[],"default_left":[0,0,0,0,0,0,0,0,0,0,0,0,0,0,0,0,0,0,0,0,0,0,0,0,0,0,0,0,0,0,0,0,0,0,0,0,0,0,0,0,0,0,0,0,0,0,0],"id":36,"left_children":[1,3,5,7,9,11,13,15,17,19,21,23,25,-1,-1,27,29,31,33,35,37,39,41,-1,43,45,-1,-1,-1,-1,-1,-1,-1,-1,-1,-1,-1,-1,-1,-1,-1,-1,-1,-1,-1,-1,-1],"loss_changes":[1.0065629E4,1.201205E4,4.7953105E3,7.247648E3,1.081488E4,1.8367734E3,2.4706055E1,7.7648325E3,2.2752485E3,2.4930176E3,2.623033E3,5.0794922E2,5.67905E2,0E0,0E0,3.1495496E3,3.0420889E3,1.3155654E3,6.77605E2,6.44708E2,3.798955E2,3.110876E3,2.852007E3,0E0,5.764808E2,5.050675E2,0E0,0E0,0E0,0E0,0E0,0E0,0E0,0E0,0E0,0E0,0E0,0E0,0E0,0E0,0E0,0E0,0E0,0E0,0E0,0E0,0E0],"parents":[2147483647,0,0,1,1,2,2,3,3,4,4,5,5,6,6,7,7,8,8,9,9,10,10,11,11,12,12,15,15,16,16,17,17,18,18,19,19,20,20,21,21,22,22,24,24,25,25],"right_children":[2,4,6,8,10,12,14,16,18,20,22,24,26,-1,-1,28,30,32,34,36,38,40,42,-1,44,46,-1,-1,-1,-1,-1,-1,-1,-1,-1,-1,-1,-1,-1,-1,-1,-1,-1,-1,-1,-1,-1],"split_conditions":[1E0,7E0,8E0,1E1,1.1E1,5.3E1,5.75E20,1.5E1,2E1,1.3E1,2.6E1,2E0,3.63E2,-1.7225096E0,-4.4607854E0,4E0,1E0,4.1E1,2.7960587E21,4.7E1,7.102583E23,1.4E1,1.5E1,-1.8185593E0,4.3E1,5.8007335E19,1.221756E0,-9.4527595E-2,-7.987339E-1,-1.9860876E-1,3.966703E-1,-1.2648008E0,-2.4654673E-1,-3.1180625E0,-1.3894739E0,1.169171E0,2.1223755E0,3.304655E0,5.580048E-1,2.5599223E-1,1.3888735E0,-1.0815696E0,2.2442381E-1,-2.9712152E-1,-1.8171799E0,3.6292267E-1,-6.4286166E-1],"split_indices":[10,8,10,7,7,11,3,11,7,8,7,8,0,0,0,7,12,0,1,0,4,8,8,0,0,1,0,0,0,0,0,0,0,0,0,0,0,0,0,0,0,0,0,0,0,0,0],"split_type":[0,0,0,0,0,0,0,0,0,0,0,0,0,0,0,0,0,0,0,0,0,0,0,0,0,0,0,0,0,0,0,0,0,0,0,0,0,0,0,0,0,0,0,0,0,0,0],"sum_hessian":[2.797E3,2.715E3,8.2E1,2.436E3,2.79E2,7.7E1,5E0,2.371E3,6.5E1,5.7E1,2.22E2,2.9E1,4.8E1,2E0,3E0,1.769E3,6.02E2,5.1E1,1.4E1,4.5E1,1.2E1,1.02E2,1.2E2,1.8E1,1.1E1,4.7E1,1E0,1.704E3,6.5E1,1.03E2,4.99E2,2.4E1,2.7E1,5E0,9E0,3.3E1,1.2E1,1.1E1,1E0,6.3E1,3.9E1,1.9E1,1.01E2,8E0,3E0,5E0,4.2E1],"tree_param":{"num_deleted":"0","num_feature":"13","num_nodes":"47","size_leaf_vector":"1"}},{"base_weights":[-5.6058314E-2,-1.2013068E0,2.637743E0,-1.0676106E0,-3.0124454E1,1.1383371E0,5.9679337E0,-2.175603E0,1.1670913E0,-1.7733599E0,-4.1179624E0,1.7080274E0,-8.304678E0,5.013546E0,1.9259008E1,-1.749796E0,-1.2225373E1,3.6458118E0,-1.0824447E0,1.0487493E0,7.5625277E0,-6.791156E0,-1.7579926E0,7.4534154E0,2.3222897E0,2.0611229E1,-1.1882629E-1,-5.058717E-1,-8.5137285E-2,-1.0465167E0,-2.426947E0,1.5758018E-1,6.267399E-1,-6.0478824E-1,2.6218227E-1,7.548767E-2,8.309432E-1,3.940055E-1,1.1173238E0,-2.9104462E-1,-8.884702E-1,1.5698911E-1,1.1380913E0,-3.6762017E-1,4.8237944E-1,1.2625048E0,2.701928E0],"categories":[],"categories_nodes":[],"categories_segments":[],"categories_sizes":[],"default_left":[0,0,0,0,0,0,0,0,0,0,0,0,0,0,0,0,0,0,0,0,0,0,0,0,0,0,0,0,0,0,0,0,0,0,0,0,0,0,0,0,0,0,0,0,0,0,0],"id":37,"left_children":[1,3,5,7,9,11,13,15,17,-1,-1,19,21,23,25,27,29,31,33,35,37,39,-1,41,43,45,-1,-1,-1,-1,-1,-1,-1,-1,-1,-1,-1,-1,-1,-1,-1,-1,-1,-1,-1,-1,-1],"loss_changes":[8.635199E3,7.5624565E3,4.162618E3,4.8456587E3,5.02583E2,3.1182102E3,3.1888164E3,5.5758823E3,3.6227512E3,0E0,0E0,2.095629E3,3.438755E2,1.5783052E3,4.9452832E2,3.729544E3,8.696211E2,1.666978E3,6.2879746E3,1.0413817E3,6.753606E2,2.1787476E2,0E0,2.9167896E3,1.7733481E3,4.7769385E2,0E0,0E0,0E0,0E0,0E0,0E0,0E0,0E0,0E0,0E0,0E0,0E0,0E0,0E0,0E0,0E0,0E0,0E0,0E0,0E0,0E0],"parents":[2147483647,0,0,1,1,2,2,3,3,4,4,5,5,6,6,7,7,8,8,11,11,12,12,13,13,14,14,15,15,16,16,17,17,18,18,19,19,20,20,21,21,23,23,24,24,25,25],"right_children":[2,4,6,8,10,12,14,16,18,-1,-1,20,22,24,26,28,30,32,34,36,38,40,-1,42,44,46,-1,-1,-1,-1,-1,-1,-1,-1,-1,-1,-1,-1,-1,-1,-1,-1,-1,-1,-1,-1,-1],"split_conditions":[1.7142857E0,5E0,2E0,1E0,1.1E1,4E0,6E0,3E0,4E0,-1.7733599E0,-4.1179624E0,9E0,1.12E2,3E1,1.7397762E23,7.3333335E-1,1.1E1,7E0,6E0,6E0,4E1,1.5760609E21,-1.7579926E0,4.3E1,1E1,7E0,-1.1882629E-1,-5.058717E-1,-8.5137285E-2,-1.0465167E0,-2.426947E0,1.5758018E-1,6.267399E-1,-6.0478824E-1,2.6218227E-1,7.548767E-2,8.309432E-1,3.940055E-1,1.1173238E0,-2.9104462E-1,-8.884702E-1,1.5698911E-1,1.1380913E0,-3.6762017E-1,4.8237944E-1,1.2625048E0,2.701928E0],"split_indices":[12,10,8,8,10,7,12,7,7,0,0,12,0,6,3,12,7,11,8,9,11,1,0,11,8,8,0,0,0,0,0,0,0,0,0,0,0,0,0,0,0,0,0,0,0,0,0],"split_type":[0,0,0,0,0,0,0,0,0,0,0,0,0,0,0,0,0,0,0,0,0,0,0,0,0,0,0,0,0,0,0,0,0,0,0,0,0,0,0,0,0,0,0,0,0,0,0],"sum_hessian":[2.797E3,1.963E3,8.34E2,1.955E3,8E0,5.76E2,2.58E2,1.307E3,6.48E2,5E0,3E0,5.44E2,3.2E1,2.42E2,1.6E1,1.255E3,5.2E1,3.08E2,3.4E2,4.9E2,5.4E1,2.9E1,3E0,1.26E2,1.16E2,1.5E1,1E0,2.67E2,9.88E2,4.7E1,5E0,1.73E2,1.35E2,1.45E2,1.95E2,4.72E2,1.8E1,2.8E1,2.6E1,1.1E1,1.8E1,5.1E1,7.5E1,3.4E1,8.2E1,8E0,7E0],"tree_param":{"num_deleted":"0","num_feature":"13","num_nodes":"47","size_leaf_vector":"1"}},{"base_weights":[-5.2162908E-2,2.4265237E-1,-9.698743E0,-4.454013E-1,5.3059807E0,-7.7899604E0,-3.2896454E1,-1.1591835E0,1.6648268E0,-1.8728737E0,6.0423827E0,-1.3281483E1,-4.2688255E0,-1.4112983E0,-3.8759942E0,-7.568569E0,-9.2841274E-1,-1.0906134E-1,3.3421004E0,-4.9460096E0,2.7627E0,7.842199E0,2.8534212E0,-9.444059E0,-1.7573185E1,-4.785082E0,1.0255737E0,-1.4064398E0,-6.048902E-1,-7.9429455E-2,-1.1286469E0,-7.031967E-1,-1.3853518E-3,2.8926152E-1,1.14487E0,-1.7235544E-1,-1.1640737E0,7.2223204E-1,-9.273529E-2,6.6001093E-1,2.7228544E0,-3.8284636E-1,5.717221E-1,-1.9332901E0,-6.1774313E-1,-1.9560951E0,-8.2104725E-1,3.011607E-1,-5.761711E-1],"categories":[],"categories_nodes":[],"categories_segments":[],"categories_sizes":[],"default_left":[0,0,0,0,0,0,0,0,0,0,0,0,0,0,0,0,0,0,0,0,0,0,0,0,0,0,0,0,0,0,0,0,0,0,0,0,0,0,0,0,0,0,0,0,0,0,0,0,0],"id":38,"left_children":[1,3,5,7,9,11,13,15,17,19,21,23,25,-1,-1,27,29,31,33,35,37,39,41,43,45,47,-1,-1,-1,-1,-1,-1,-1,-1,-1,-1,-1,-1,-1,-1,-1,-1,-1,-1,-1,-1,-1,-1,-1],"loss_changes":[7.959751E3,9.464477E3,3.4189253E3,3.6048635E3,1.7294365E3,1.4515425E3,1.1380127E2,2.637602E3,1.8004186E3,4.5528253E2,1.6707891E3,3.2810986E2,4.1649597E2,0E0,0E0,5.2695874E2,2.39019E3,1.9434146E2,1.1001045E3,3.8983228E2,2.2062866E2,4.34725E3,2.0885308E3,4.6202942E2,8.1336914E1,3.828468E2,0E0,0E0,0E0,0E0,0E0,0E0,0E0,0E0,0E0,0E0,0E0,0E0,0E0,0E0,0E0,0E0,0E0,0E0,0E0,0E0,0E0,0E0,0E0],"parents":[2147483647,0,0,1,1,2,2,3,3,4,4,5,5,6,6,7,7,8,8,9,9,10,10,11,11,12,12,15,15,16,16,17,17,18,18,19,19,20,20,21,21,22,22,23,23,24,24,25,25],"right_children":[2,4,6,8,10,12,14,16,18,20,22,24,26,-1,-1,28,30,32,34,36,38,40,42,44,46,48,-1,-1,-1,-1,-1,-1,-1,-1,-1,-1,-1,-1,-1,-1,-1,-1,-1,-1,-1,-1,-1,-1,-1],"split_conditions":[1E0,7.1E1,8E0,2E0,7.5E-1,5.3E1,5.75E20,1.79886E5,4E0,8E0,1.6E1,5E0,3.63E2,-1.4112983E0,-3.8759942E0,7.1887695E3,3.9E1,2.3605146E4,1.4E1,1.9E1,1.7459274E22,1.3E1,1.4E1,5E0,1.8E1,5.8007335E19,1.0255737E0,-1.4064398E0,-6.048902E-1,-7.9429455E-2,-1.1286469E0,-7.031967E-1,-1.3853518E-3,2.8926152E-1,1.14487E0,-1.7235544E-1,-1.1640737E0,7.2223204E-1,-9.273529E-2,6.6001093E-1,2.7228544E0,-3.8284636E-1,5.717221E-1,-1.9332901E0,-6.1774313E-1,-1.9560951E0,-8.2104725E-1,3.011607E-1,-5.761711E-1],"split_indices":[10,11,10,12,12,11,3,1,0,9,7,6,0,0,0,5,7,4,8,0,4,8,8,0,6,1,0,0,0,0,0,0,0,0,0,0,0,0,0,0,0,0,0,0,0,0,0,0,0],"split_type":[0,0,0,0,0,0,0,0,0,0,0,0,0,0,0,0,0,0,0,0,0,0,0,0,0,0,0,0,0,0,0,0,0,0,0,0,0,0,0,0,0,0,0,0,0,0,0,0,0],"sum_hessian":[2.797E3,2.715E3,8.2E1,2.391E3,3.24E2,7.7E1,5E0,1.787E3,6.04E2,3E1,2.94E2,2.9E1,4.8E1,2E0,3E0,6.1E1,1.726E3,2.94E2,3.1E2,1.8E1,1.2E1,1.87E2,1.07E2,1.7E1,1.2E1,4.7E1,1E0,1E1,5.1E1,1.705E3,2.1E1,3E0,2.91E2,2.95E2,1.5E1,1.3E1,5E0,5E0,7E0,1.77E2,1E1,3.2E1,7.5E1,3E0,1.4E1,9E0,3E0,5E0,4.2E1],"tree_param":{"num_deleted":"0","num_feature":"13","num_nodes":"49","size_leaf_vector":"1"}},{"base_weights":[-5.0349034E-2,8.4259965E-2,-1.78548E1,-4.2493698E-1,5.123981E0,-1.287497E1,-3.5800328E0,-1.207554E0,1.4490762E0,6.822257E0,1.8235904E0,-1.3916594E1,-3.0279949E0,-6.732632E-1,-9.47788E0,3.8257458E0,-9.3787795E-1,4.2915893E0,1.2708801E1,-4.4235654E0,3.9729993E0,-9.266243E0,-1.650395E0,2.4682008E-1,-7.010193E-1,-4.4522792E-1,-2.2240672E-3,-8.117437E-1,-2.073656E0,3.4875008E-1,2.8023083E0,-4.5665392E-1,1.4800167E-1,6.827909E-1,-3.4999687E-2,1.4798213E0,7.343914E-1,-1.203888E-1,-8.488757E-1,9.5214653E-1,2.5636837E-1,-1.4208755E0,-3.4589845E-1],"categories":[],"categories_nodes":[],"categories_segments":[],"categories_sizes":[],"default_left":[0,0,0,0,0,0,0,0,0,0,0,0,0,0,0,0,0,0,0,0,0,0,0,0,0,0,0,0,0,0,0,0,0,0,0,0,0,0,0,0,0,0,0],"id":39,"left_children":[1,3,5,7,9,11,-1,13,15,17,19,21,23,25,27,29,